encog,BasicNetwork,java,3.4.0,1,1590072172506
[BASIC]
[BASIC:PARAMS]
[BASIC:NETWORK]
beginTraining=0
connectionLimit=0
contextTargetOffset=0,0,0
contextTargetSize=0,0,0
endTraining=2
hasContext=f
inputCount=315
layerCounts=235,291,316
layerFeedCounts=235,290,315
layerContextCount=0,0,0
layerIndex=0,235,526
output=0.0000053727,0.0003190942,0.0009848489,0.0000437214,0.0003543731,0.0009933573,0.000001731,0,0.0137249138,0.0000014585,0.0000079508,0.0000002975,0.0360668884,0.0000000006,0.0000055086,0.0000005243,0.0000096924,0.0358539445,0.0000508931,0.0005546461,0.0000027359,0.0019844672,0.0000048868,0,0,0.0001139587,0.0000229667,0.0000022014,0.0360668884,0,0.0360668884,0.0000118349,0.0000205802,0.0360668884,0.0360668884,0.0000000002,0.0000018027,0.0000264209,0.0360668884,0.0000000718,0.0360668884,0.0000016567,0.0019946214,0.0000054132,0.0148756671,0.0000173505,0.0000326113,0.0000122668,0,0.000000227,0,0.0000180619,0.0360668884,0.0000000221,0.0000607197,0.0000302453,0.0004038378,0.0000877076,0.0000023514,0.0000159835,0.0001474517,0.0067088699,0.0001399144,0.0000061626,0.0000007682,0.0004260751,0.0000226437,0.0000000007,0.0003778692,0.0000000042,0.0000185937,0.0003600799,0.0003019952,0.0002275933,0.0013849243,0.0069740151,0.0000133438,0.0000002461,0.0003869676,0.0000022701,0.0000155418,0.0000000014,0.000000683,0.0000000093,0.0000038332,0.0002140674,0.0000362562,0.0002978032,0.0000005649,0.0048929385,0.0011544999,0.0000060575,0.0000000791,0.0360668884,0.000011595,0.000000556,0.0010095068,0.0001928645,0.0360668884,0.0000148083,0.0213261179,0,0.0000004249,0.0000001465,0.0000011376,0.0006657582,0.0001970955,0.0000044665,0.000146188,0.0360668884,0,0.0008175088,0.0012878262,0.0000001915,0.0000568303,0.0009437263,0,0.000014151,0.0000000152,0.0013673601,0.0169124261,0.0000675771,0.0360668884,0,0.0000000611,0.0000121303,0.0360668884,0.0000068656,0.0059174138,0.0000490024,0,0.0000001696,0.0000377873,0.0000000653,0.0000015091,0.0000001337,0.0000001426,0.0000000105,0.0045393091,0.002143242,0.0000211567,0.0014162343,0.0033563049,0,0.0000000001,0.0000083459,0.0007754749,0.000085551,0.0000722468,0.0000208793,0,0.0000001929,0.0000000002,0.0360668884,0.027444397,0.0002757912,0.0000000454,0.0360668884,0.0001883036,0.0041744877,0.0000000006,0.0000020083,0.0000826722,0.0000009054,0.0000000039,0.0000048897,0.0008234698,0.0004169884,0.0002058034,0.0360668884,0.0036650605,0.0006794189,0,0.0000001522,0.0001047937,0.0000127793,0.0002950487,0.0360668884,0.0000201852,0.0000008709,0.0014442675,0.0002154831,0.0000006985,0.000000001,0.0000335904,0.0000337522,0.0000013465,0.0000018552,0.0000037481,0.0010948592,0.0000004071,0.000024258,0.0013498267,0.000013033,0,0.0360668884,0,0.0000058595,0.0069930398,0.0000000006,0.0000590281,0.0000177595,0,0.0360668884,0.0007446363,0.0000000162,0.0000519348,0.0000906904,0.0053047831,0.0360668884,0.0000000932,0.0000000504,0.0000916829,0.0000000633,0.0000009973,0.0000097393,0.0037320387,0.0000503308,0.000055331,0.0003036112,0.0001695147,0.0008294763,0.0008715298,0.0000143073,0.0000000024,0.0000000052,0.0202357006,0.0000000208,0.0000014661,0.0000102766,0.0000314939,0.0360668884,0.0000000002,0.0000169092,0.000000119,0,0,0.0704091834,0.0000000009,0,0.0000000031,0,0.0000065253,0.3739388018,0.9375114702,0.8497552336,0.0224445258,0,0.2004686388,0.0044575858,0,0,0.0000010826,0.5125173545,0,0,0.0009838167,0,0,0,0.9847440424,0,0,0.0000722787,0,0,0,0.0060330666,0.0000005745,0,0,0,0,0.0000006548,0,0.7225508624,0.0203003614,0,0,0.0815370378,0,0.0000000103,0,0.0752026443,0,0.000000003,0.7188219854,0.0000000018,0.0000704729,0.0000001106,0.0045910191,0.5363592182,0,0.0707121001,0.3416883493,0,0,0,0,0.2406713333,0,0,0.0010472345,0,0.0107575388,0,0,0,0.0000000011,0.000000112,0.0084205564,0,0.3894330266,0,0.0000085651,0.0000000231,0,0,0,0.0000050283,0,0,0.0000000035,0.000044261,0,0,0,0.0094181043,0,0,0.3955667978,0,0.0428913359,0,0.0403703941,0.2187457242,0,0,0.6254805245,0,0,0,0,0,0,0,0.5645211763,0,0,0.0057616529,0.8689233463,0,0.00000002,0,0.0258997831,0,0,0,0,0.3962485032,0,0.0000000772,0.6874105554,0,0.0764375492,0.1440881786,0,0,0.5130765217,0.5336728447,0,0.0024806212,0.0000004984,0,0,0,0.5163288748,0.0315614184,0,0,0.2817122738,0.4586989604,0,0.0000592423,0,0.0602157734,0,0.87418419,0,0,0,0,0,0,0,0,0,0.5188510449,0.0659513485,0.8455036094,0.0032882669,0.7477647571,0.0651576687,0,0.0000000426,0.0000007811,0.0187008288,0,0,0,0,0,0,0,0,0,0.0000120888,0.1327460928,0.1885274819,0,0.020314904,0,0,0.0000327968,0.0002721867,0,0.2634419385,0,0,0,0,0.3716990766,0,0.4085425673,0,0.0145882718,0,0,0,0.0000000006,0.0489530643,0.0000000055,0.000633707,0.0000000067,0,0.9215539151,0,0.0008510863,0.0049955164,0.3489479098,0.1481673345,0.0000319974,0.7195696845,0,0,0.0000007658,0,0.0000000042,0,0.0000000003,0,0,0.1286687335,0,0,0,0,0,0.0121557802,0,0,0,0,0.5781985666,0,0,0.0000000004,0.4267479012,0,0,0,0,0,0.0000000016,0.1509738106,0.0000000041,0,0.3964131783,0,0,0.0126216491,0.6559986147,0,0,0,0.0009317122,0,0,0,0.0423867987,0.0000000005,0.0000077086,0,0,0,0,0.2104768399,0.001164788,0,0,0,0.864972232,0,0.0899523982,0.107500175,0.638307244,0.1306795388,0.9125262586,0.8443745626,0,0.0000000008,0.0001112335,0,0.0012266873,0,1,0.214,0.5,0,0.071,0.143,0.214,0,0.071,0.143,0,0.429,0.214,0,0.071,0,0.071,0,0,0,0.143,0.286,0,0.143,0,0,0,0,0.143,0.071,0,0.071,0.214,0.071,0.214,0,0.071,0.143,0,0.214,0.071,0.071,0.071,0.214,0.071,0.214,0.214,0.214,0,0.071,0.286,0.714,0.357,0.071,0.071,0.286,0,0.071,0,0.286,0.214,0.214,0.071,0,0.071,0.071,0.286,0,0.214,0.214,0.071,0,0,0.214,0.143,0.429,0.286,0.214,0,0.071,0.071,0.143,0.214,0.071,0.071,0.143,0.071,0,0,0,0.071,0.071,0.286,0.071,0,0,0,0,0.143,0,0.071,0.143,0,0.214,0.286,0.071,0.571,0.286,0,0,0,0.071,0.143,0.143,0,0.143,0.143,0.071,0.071,0.071,0,0,0.071,0,0.071,0.071,0.143,0.786,0.143,0.214,0.214,0,0,0.214,0,0.214,0.143,0,0.214,0.071,0,0.071,0,0.071,0,0,0.143,0,0.214,0.214,0.286,0.071,0,0,0,0.214,0.143,0.143,0,0.357,0.143,0,0.143,0.071,0,0.286,0.143,0.429,0.214,0.357,0,0.071,0.286,0.286,0.286,0,0.357,0.214,0,0.143,0,0.214,0.143,0.143,0.143,0.071,0.143,0.071,0,0,0.071,0.071,0,0.143,0,0.357,0,0.429,0,0.357,0.357,0.143,0.143,0.071,0.214,0.143,0.071,0.429,0.143,0.143,0.143,0.214,0.143,0.429,0.143,0.214,0.143,0.214,0.143,0.143,0,0,0.214,0,0.214,0.143,0.143,0.071,0.286,0.357,0.357,0,0.214,0,0.286,0.071,0.071,0.071,0.214,0,0.143,0.143,0,0,0.214,0.643,0.071,0.286,0.143,0.071,0.071,0,0,0.071,0.143,0.214,0.071,0,0.143,0.071,0.071,1,0.357,0.143,0.071,0,0.571,0.143,0,0.071,0,0,0,0.071,0.143,0.143,0.5,0.143,0,0,0,0.071,0,0,0,0.214,0.214,0.071,0.429,0.143,0.357,0.071,0.929,0.357,0,0.214,0.214,0.286,0.214,0.071,0.071,0.214,0.214,0.071,0.286,0,0.071,0.071,0.071,0.214,0.143,0.071,0.071,0.071,0.214,0.214,1
outputCount=235
weightIndex=0,68385,160025
weights=##0
##double#160025
   -0.3227202203,1.1862734957,3.5854822175,2.4292838472,1.1085424579,-10.6665183091,-5.392418925,-0.7753517552,1.7951806199,1.3285984715,-0.0646504653,-0.6826879562,-1.9267528563,2.4769057865,-0.0049156609,-0.0505066549,0.417436217,-1.2552496393,1.1872990707,0.018465473,-12.9433527468,0.7027304704,0.1447510473,0.7585456174,-5.0812540639,1.334914761,-16.7455836912,-11.0896863065,1.5385814535,0.0604351708,-0.9586975158,-0.9823833833,6.1779458008,2.3150411662,-2.0327702431,-1.028937124,-0.1860185505,0.8249436278,-0.4558290352,-0.7032972308,1.2652858313,1.3365681226,0.3130314615,-6.872204733,1.4136643208,-3.2808102924,0.7532175673,0.9417852339,0.7281324992,-1.4858429588,-0.9959968299,1.6873141521,0.5301209808,0.8628894481,0.9619940134,-1.6863080206,0.4376200265,0.3882362289,0.8477571638,2.5451075423,-0.0650121853,-13.3824849222,-0.8183192517,-0.1904513299,0.4080836649,1.6653734538,0.5788357642,-0.5263245992,0.7384232236,0.2960559708,-10.603207378,-0.2236974753,-3.2988996959,-5.5081384737,0.959879868,2.0045422947,-11.1853637943,0.7265030529,-0.6569546955,0.2706799886,-0.5124886823,0.0317517852,-0.4565206184,-0.0793714045,0.7355655079,0.3873624278,0.3436889941,-1.5145087554,0.9824155149,-2.7447993086,-0.7337583695,-9.8987721191,6.8964048266,-19.7470214392,0.895088631,2.1578290049,-4.1634463127,1.2299746833,0.4460134756,0.886207184,0.2267111561,2.2277760002,4.9002142619,-0.0438337582,-39.8235424912,-0.979624397,0.0075561513,-1.0184256783,0.7375404815,-0.3546066168,1.1790362453,-0.7158159498,-0.344158957,-38.9685797524,-0.4652397656,2.0525501947,-4.8376675449,-0.9345357096,1.799068509,0.9652523107,2.2312267601,-1.5619392403,-8.0525539179,-1.1170611685,1.7606878366,-0.556025759,1.1474616591,1.4124742765,-1.6828837977,1.3187626339,8.9228810958,-1.4638473914,-4.1504361634,0.0126582574,2.0111009531,0.7379818891,0.2348566188,10.6735938295,1.7379676917,0.1535976311,-4.0611452037,0.165944117,0.7742696575,-0.2916077158,-2.404198338,1.4678919056,2.589064949,-0.2037542836,-1.0138243849,0.3014463957,1.1482444373,-3.7410336528,1.7796999917,-0.4767441752,-3.2496618525,0.1757907516,0.8074908431,-12.35660989,0.8540332712,0.4138318878,0.1405303318,1.3728604458,0.7519911191,2.5911339617,0.886977925,1.4018297794,1.2279139104,2.0170512661,0.7188627312,-0.5920127234,-2.8566265053,2.7000623108,0.0251529087,-11.5071085586,-1.9532804673,1.3954681523,-0.3213692327,0.4872418565,0.186823925,-1.9427131782,0.803625695,0.0231234309,1.2922004585,0.0933938829,-5.502408722,0.8602293881,4.1807261459,2.1677941937,-1.4923147494,2.2221687519,-0.7629161125,1.059816619,-0.4241984653,-0.8867537841,0.8235294553,0.1619277171,6.088478266,-0.7538857848,2.2015763671,-5.0119735062,0.2571349422,1.3280537487,-1.4431552649,-4.23925475,0.2122912524,1.8355255743,0.4185196736,-6.825664294,0.7964902833,-0.1984590231,0.0672227961,-0.1557531274,1.7594037395,1.979788631,1.1335426527,0.7342595216,2.3434639305,1.6961913644,-0.2767435822,-7.5554497488,0.2592035247,-19.140079234,0.2495968688,-1.9394731941,-0.2736763306,-0.6003751793,-14.3767678659,0.803816961,-33.0423217752,-0.3009801846,-0.7223708856,-0.130812027,-0.7749800248,0.8935196311,0.6195758205,1.1771323261,-0.3737536041,0.6869246048,1.3212875289,-0.5943534208,-1.4909054837,-0.2111629938,1.77040116,0.2619655272,-0.151014453,-2.6802015265,-0.7933923254,0.0820880699,0.5611883529,-0.1393251491,-40.9568406547,-7.7165882245,2.2947592953,-0.9422624891,-1.1330446981,1.063538042,0.8278704974,-0.1040867145,-0.7791849311,-0.854161464,1.9308073034,0.7983839015,-1.931402471,0.7004740863,0.1892588598,1.8060906356,-0.5848731936,-3.5677728763,-0.4001952855,-0.9574358761,-0.492046099,0.9814505235,1.4844043811,1.0734435323,-0.5032847957,-2.0901451402,2.4293255698,1.5870427281,1.5640805785,1.0207006727,0.2035142495,0.9019574695,0.940887886,1.9913904149,0.9717809614,2.1723200523,-0.8781151922,0.1181950453,0.6754956261,-5.8990807329,2.5095954598,-1.027051993,-4.4070615266,0.5627386238,2.2803454162,0.0165098336,0.4641557173,-16.2391944763,0.9792182852,0.71381714,2.4992950973,1.6906207018,1.0843287657,-0.6591674729,1.5682761195,0.8734413885,-0.1278008499,-2.6472400169,-15.2405254886,0.7166645548,0.4964028777,-2.8298218583,-0.0420386417,-12.8224938285,0.7148116477,-3.9422868268,0.6088571155,-9.4398363904,1.2820776077,-0.0730403536,0.335473103,-1.8782442726,-4.4093424449,2.6675942556,0.3162370931,-1.2813799248,0.4545340687,-2.7233362518,-64.4438108488,0.2612490281,-0.909336902,2.4580133642,0.9169176578,-0.113836819,-18.2585791389,1.9661116313,0.6825676344,0.7907264659,0.4645655721,1.7827913031,-8.5370951829,-4.9868540801,0.9096384952,1.5354601706,-0.7570355765,0.0222060416,0.384427814,3.6287575145,-0.2398724125,2.908096008,1.3754812754,-1.8020826779,0.9693437052,1.0664296852,-0.7567621273,1.8597191115,0.9768001964,-0.6166565998,0.0161651106,0.8501463203,0.9198895857,-8.9751816612,-1.1803632164,-1.2888287786,1.0387779782,0.9676834938,1.7045136827,-4.8798630444,2.6543685404,-1.902076067,0.5204349594,0.8068088581,-1.7061361817,-8.0422587178,-115.6308072049,7.9067209363,0.4272001858,0.0586325595,0.6389754659,1.779829786,-36.4944104404,-4.0493645457,-120.8778796421,1.4690399207,-8.0740239551,-0.9709806465,2.7634101159,-4.05316478,1.3475694093,-0.6676654743,2.0732896127,1.7162147997,0.4034738065,2.4197179473,3.2176473751,-22.4750395563,-0.4844465779,29.6796994709,-1.9603208779,-4.5760911778,-0.4467719164,-0.5923586983,0.4791350323,-0.9628900839,-13.495336526,-0.0105406688,0.9428074321,-1.0688319253,0.1503642639,0.8915341924,-0.6519215115,-0.0744533619,-0.0731310232,-52.4798058702,-2.0167848702,-0.0188245394,1.2900987691,1.0293616593,4.0016104397,0.3056259201,0.7731411545,0.0766809913,-3.6635548914,0.210028879,0.3977093699,2.5176867411,-0.1955237154,1.0855246819,1.7664936073,0.7195874057,-0.700804988,-1.4414064522,0.7369384271,-2.8127855644,0.4526482661,-0.7443384636,2.0030842323,3.8364503994,-5.0447455736,0.1963403166,-49.116573015,2.4501063258,-13.4483473475,2.1068188334,0.4238888391,-4.067304706,-2.8864455395,-0.4176243361,-41.6683157896,-1.2512727353,-0.5203888212,-0.7680973068,-0.2183626406,-0.1798612678,1.2183657157,1.7617644199,0.5598088125,1.4751540783,1.4642900874,-0.9449451774,0.2608908029,0.8412454548,3.4416766121,-2.7217727275,0.8174891234,-4.0855983528,0.9714638399,-0.6595881317,1.3976071663,-0.7588691962,-1.2865435739,-0.4816713856,-0.1924980241,1.1855822012,0.0327851923,-0.6346072862,0.2049510248,-7.4116661348,0.7577726591,0.1778874818,1.2231530709,-0.7810841437,2.226031998,0.479728504,-10.1650212956,0.3497908698,-2.0563718633,0.7243094473,-1.3256380825,1.0188550121,-37.6588030626,-0.4026061419,0.083248301,-0.7262706884,-13.297075262,-0.0675510366,0.8863858578,0.0850443461,-1.8829127026,-0.9519081609,0.4506168439,2.202444112,-2.5848455664,2.9601385741,-0.1239912088,1.2462847044,1.6378726558,0.8666178465,0.511231191,0.6397770712,-0.9163199673,0.731246057,-0.227776821,0.1934449432,-1.507272535,-121.4880758015,-0.2119093364,0.8558385259,1.7710248866,-115.3301479962,-1.9373537358,-1.5799445393,1.6107623032,-2.471961413,1.5849918471,-2.1869935232,1.6211930344,-1.8807037984,3.991525101,3.5003756863,-0.491789031,-3.3619114617,-0.6429340312,0.9175113633,0.4189306424,-0.2644868771,-4.0988646737,-0.9123588322,0.4796181783,0.927473912,-0.0099271371,-25.3947238333,-186.041747638,0.3753053149,-7.8209538759,-2.211982392,1.3883842996,1.5503004473,-23.4224325196,-0.5588495274,1.9499682314,0.4535479118,0.6193093864,-2.1848421103,-0.1707865562,1.736043558,-14.8134490747,-0.5175822715,-0.3380045516,-0.3469573493,-7.4065468015,3.2126474005,1.2910679179,0.0051012485,-0.8990824289,-4.9340402432,0.4105191117,1.4147456389,-14.2739542461,0.5489801216,1.6106514106,1.4552103001,0.7899188045,0.3770807918,0.6028565743,0.9269840431,1.1751837001,0.9148697341,-1.051664617,-0.7263320302,-6.9684045453,0.546484512,0.5618516818,-14.4245033446,0.2952302482,1.1343588021,0.4110944347,-0.6442900802,-0.4371024243,2.7392352177,1.7256366579,1.831586056,0.3703292943,0.9551500324,-3.0871695295,1.9769214078,-0.3973209493,0.2961981251,-2.8548193225,0.6218409542,1.4862848362,0.4431024117,-40.9306090462,0.4456453887,-102.5563246955,-4.8212438825,5.0287002189,0.4417890225,-2.1111550611,-35.0527596828,1.8459901678,7.105043389,-3.1895639888,-2.5056449296,0.4216888554,0.2644868706,-0.4701106008,0.7605234062,-1.648357456,-41.1934204003,3.2203517479,-0.907038906,1.2362786362,0.1202266344,-41.2985172826,-177.142254492,1.2692153356,0.7329102534,2.4614136383,1.1579129138,1.0286246592,0.675020842,-42.5947129209,0.366007524,-0.7615082815,0.3540042383,2.0737086068,1.3448742174,1.349052674,-0.7799224347,0.9781180601,2.2363785666,-1.0466371896,2.1630865113,-0.2946961102,-0.8396387754,1.7724212214,4.9206488469,0.8705991962,12.136184354,1.0834234416,-3.1193144698,-69.0134363983,-0.0453535459,-1.5642050223,-1.3202177821,43.200636438,1.0787429405,-9.1039743601,0.8461652362,-0.599807763,1.9570764836,1.7001092605,2.6094905746,-36.0158162545,-14.8082984414,4.2840934773,-0.0182464912,0.7610329078,-1.2640308309,0.4048073766,-13.3386851974,-4.6381645148,-0.1945174544,0.7868757157,1.7744187237,0.2491856797,0.859341535,-5.1607962796,0.5381768581,-0.1960222811,1.3767900853,1.7249622283,0.49110483,0.6917345713,1.8617985656,-9.4992261124,-0.7293803129,0.5878036458,-0.7427259697,-41.2424938011,0.2551594811,-0.0423425667,1.7306834405,-1.9191799694,-38.6715522409,-0.5381923145,0.1574740649,0.6073460962,2.1156571126,-0.1631484939,116.3249039798,1.9517319315,-0.7419553302,-7.0930451786,-120.0802558775,1.9813407027,3.0518105029,0.41426034,1.4710886741,-0.9337355762,1.269859685,1.2415723996,-1.43163425,-2.3059864849,0.5048788724,1.0400507428,-4.6067775068,-0.1978454105,0.7414201343,0.1364632916,-0.7960060149,-14.9755207691,0.7824318621,-0.2085781551,0.2255285797,-7.2874971893,14.3446576712,0.2605290142,-4.5787715072,1.48581849,1.1277859092,0.0849595574,-10.192729424,1.8812513263,0.4964685029,-5.4142104447,-12.0046265696,0.8459728113,-14.5896152844,-1.7577898488,0.8857921393,-0.1487488536,0.3032716396,0.2849919603,0.5709774568,0.4985093808,-0.7998438914,-0.0887302051,1.5184852709,0.5562988203,65.8268258868,-0.4197502,0.8206194249,-3.1678036171,-3.2740089308,0.2040586073,0.1851402741,-0.1391293489,0.6170022344,0.2248864589,-2.7544253939,-32.565632219,-0.4596537698,0.136308227,2.210255376,-65.6982700792,0.9221787995,-23.2750039955,-42.8171408465,0.1171704145,8.7332194995,1.4237917744,0.972596737,0.1257209514,-0.8394998307,0.1663118385,-0.9551242856,-0.029260865,1.571444732,1.5291899226,-10.5208383473,19.4098504506,0.7398747186,-1.2351288475,-14.3126000507,-1.3611226934,1.0977961298,0.3191843465,-28.487538877,-0.9349407255,4.1086566325,1.3800714618,-1.0851916417,0.2003687827,1.1412989557,1.4034566788,4.4133651792,0.6728065425,0.9605203673,-0.8002539714,-1.1060157239,-1.9097466155,-6.618683769,1.1989695152,-2.2939726139,-4.4463860197,-0.2163673632,-5.1310239114,0.9892341384,-13.7055188488,-0.7451477417,-8.9230355156,-0.1322516122,-0.90510054,1.6421357277,-2.014662618,-0.551483278,-0.4817181763,0.2661504793,0.3063021448,-0.1563374061,-0.2889175179,-0.1002007063,8.656864662,3.4182509316,-14.9906987692,-5.8126049969,0.9381398525,-0.8713913103,0.1906065782,1.1849465828,-42.9080565585,-15.2574651554,0.328282075,-0.8845500621,-0.0200365317,-1.2428097174,2.0885154632,1.7339464366,0.1184472278,-6.4255399997,0.8131690837,-0.3753410426,-5.040545469,-1.2329121386,0.7635841874,0.5737071248,1.0432639267,-0.1950888008,-42.8219082029,0.1884243519,0.340100591,0.4402048257,0.1293873373,-0.0527923128,-4.9942672436,-5.617869551,4.8998023292,0.8568596858,1.559069667,2.7498034837,0.7101222758,-0.543046676,0.3338133478,1.9078628079,1.0762062742,0.186838031,-1.5226366147,-1.0616894351,2.0024046918,-29.5061831365,1.113240107,-0.7902298346,-0.274328232,1.859507991,0.5738519245,0.6134500292,-0.7687412835,0.9656199825,-0.7291943004,1.8586316692,1.4080496414,1.4002079041,1.1656542544,0.8548991705,0.9976896212,0.3098293486,-0.2814259025,-0.3412386249,-0.2841359991,0.0501342155,0.7349223083,-7.8509284744,0.7411891294,-0.7527256779,0.411352974,0.7815515957,1.9136778022,-0.0037186365,1.1155596722,0.5700686408,-0.3846871683,0.7467129342,0.221603867,0.7228968806,1.5609911782,-0.3689126381,-0.7691395964,-0.3093108034,0.0358513965,0.7111222034,0.4866663188,1.8625752093,1.0067344569,-0.6000001726,0.3211676715,1.9563453164,0.6567881575,-0.0889598191,0.7096071545,1.7813128695,0.0690329749,0.945913278,1.2693650014,1.280669082,0.1936147584,-0.2667640482,1.6531648347,1.5479864656,-1.6578201734,2.7093532689,0.110998114,-1.7478823357,-0.1058743078,0.5980766325,0.9177297033,0.444979548,0.4817364075,-0.1346933436,0.5089307526,1.3652540943,0.1931667567,-4.0303865808,-0.432145748,-0.8246159986,1.3398488522,-0.6784907934,1.43448628,-0.7333974858,-0.858999568,-0.6067495267,-0.0598975138,-0.302528273,0.1292800474,0.0579939907,0.0559284889,1.545238941,1.2542802762,0.6202749191,0.136667374,-0.13094972,-4.4406017651,0.9538529815,0.6229688499,1.3245854953,1.1970374068,0.5772439254,1.408657994,0.3142197285,1.3985446949,-0.5675194168,1.7772618706,0.0671238025,0.061610889,0.3442852169,2.827038925,-0.4671722985,-0.7033576478,1.2206047045,-0.3130649845,0.9385831174,-0.2281382319,0.7890605632,1.6492588155,0.5298477332,0.7254681352,0.5435071183,1.0747497829,-0.5509253124,-0.0358964691,1.2535323519,0.8721790284,0.8824378693,0.8408890654,0.370296015,0.1818553297,1.27711777,0.374608545,0.4591750167,2.0002992632,0.9238811723,1.465736078,0.6066492162,-0.5129702179,0.4576683102,0.068062251,1.0410636509,-0.8518094366,0.1293544491,0.8094211185,0.8083888943,-0.059484693,-0.5656454103,1.8166306525,1.7666130221,-0.4075872495,-0.3585153119,-0.3237878891,0.9144858733,-0.7932500725,0.947433065,0.7275621606,0.1909204758,0.7116781675,3.2136999683,0.2224282824,-0.6460428643,0.4581608227,0.0048833255,0.195248249,0.2310918685,-0.8736780602,0.2448313155,-0.260272052,0.484689546,0.5195484125,2.175760732,-0.3063993308,0.2933506713,0.804552943,-0.2751869496,-0.7775100256,0.2683561466,1.7666245131,0.8281555187,0.5846133784,1.4592207579,0.4202591166,-0.750199984,0.202053378,0.6319135987,0.7777506729,0.1772404616,0.9714874016,1.7743939473,0.0696088292,0.7015204875,-0.2293998566,0.3606908445,1.0509856905,0.6998364331,3.7742496027,-0.4734375364,2.2787409363,-1.1111816939,0.2607739403,-0.0703970744,-0.1219870239,1.2435539034,-0.1007702486,0.2615343822,0.9339160691,1.3801361955,-0.0089034572,-0.0774349145,0.0552074833,0.7662161812,1.0249396305,0.3753431355,0.2437955394,-0.3797764227,-0.2351839154,2.695320455,-0.4196623277,-0.2779085356,0.5413313888,2.4061135493,-0.1847052161,0.1236411778,1.6273550613,-0.1875919732,-2.8360313196,1.0848653518,0.4797718871,0.3186519493,0.3499618403,0.8316168064,0.5050825415,0.1862160279,1.0575827956,-0.3250872205,0.8980364988,0.446474805,0.3516419847,-0.0982568157,1.0846280054,0.6377289874,0.5475803523,-0.0699314257,0.5945844452,0.710630415,0.4819769279,0.3696724559,1.0323268766,1.0846631846,0.3303437404,-0.8312436992,0.6186857408,-0.1901260711,-0.3711509658,0.1392018046,-0.1479495724,-0.103676153,-0.014308488,3.1615683032,0.185890932,0.3669101544,0.5541173372,1.9838417231,0.2263898805,-0.3536098115,0.6794340828,1.6506228277,1.1677795247,-0.6784643252,-0.6659719865,2.1400062795,0.4272082608,0.9973316311,-0.2968000747,0.7661212565,1.3400312128,0.0323384785,1.0796585582,0.8466720941,0.0173388676,-0.5583591504,-0.0355702373,1.5976636202,-0.4586103669,1.3030998606,2.0891445333,1.5817790835,-0.4174132594,2.8863731077,1.4728566307,1.3925078411,0.9359453976,0.7470005122,-2.3024030488,-0.0194577441,-3.997480898,0.4186423706,1.1151318609,0.1822388656,1.6963989676,5.6772650613,2.5109686411,-0.8937206078,-0.6848452495,0.5053323808,2.3089191095,0.9841450144,-0.5063744596,-0.2516452651,0.7347157619,1.4717079325,0.18761645,-0.0026674628,-1.1242380578,-0.178443213,0.3750318265,0.2313588596,-7.5056844198,0.9953189097,-0.1726612482,0.475228408,0.7874767588,1.522640591,-1.0517953961,0.4051906693,0.4571261702,-1.5283041797,-0.695511709,0.0854967655,0.2501877834,1.0559176876,0.1436888686,0.3638734401,0.4384167065,-0.6053111039,0.7700028429,-1.3498382019,0.5806271529,2.9223680894,-3.9849777603,-1.0056217225,0.6957670578,1.4090822285,0.6099162845,1.1932311135,2.1217884957,-0.2745847699,0.3470571492,2.574283432,-0.4918031641,0.1686027334,0.682458009,0.549138625,4.9151363845,0.1641278416,2.5174041621,0.342605779,-0.4587372635,0.8052669381,0.6927084942,-0.12635991,0.2893423764,-0.654502547,-1.4112370804,-0.8778205496,-0.5740139373,0.011415971,-32.2342971516,-0.035760363,-1.0042397402,0.1900906138,1.0347206342,1.6699347217,-7.0727368521,0.9724787561,0.0812786746,-0.3892635458,11.0451766533,-0.9670698886,-10.0379371846,-1.020870496,-0.1383751554,0.7562520429,0.2442531619,0.9587214684,-0.9246454683,-1.9145718851,-0.4187447838,-0.6297449794,0.7546971691,-7.4532330888,-0.5374760191,2.5939169881,0.2124787276,0.1579399472,0.3079557329,1.0377854708,3.7383277117,-0.6404806315,1.4609865476,2.663087627,-15.4502782356,-1.2506624475,-0.9613350882,-0.8206759704,-1.1256340803,-0.4470793642,-0.1416758702,2.8441919859,0.3745803074,0.2080557729,0.6058406334,1.6749749525,-1.9374335042,0.6813640357,-0.606241837,1.0101214052,1.4095897805,-0.3065644259,-0.4420440656,-1.3623148246,1.2667323021,0.7575391713,-0.4311791425,3.1879988635,-0.2003303071,2.0338562203,0.15412823,-4.6633130576,0.9862545545,-0.2580569298,1.3298594371,0.6797096837,-0.5947501294,1.3728103865,0.1097217034,0.3112876906,-3.4078694614,2.5279936067,0.6902164946,-0.3766596215,-8.8872825306,1.1242393182,0.562604089,-0.1358032772,-1.2594587029,0.7499418143,1.3314601185,-4.8923671037,2.8392716957,0.0851454096,-2.1775563307,-1.435237097,0.79348702,-0.7820855497,0.466274592,0.5325533857,2.384314055,1.1607749472,2.7119041658,0.2397830183,2.0249671776,1.0048633225,0.5581725,1.2182851071,0.5245662986,-0.1628284807,-0.1978715118,2.5514050903,0.4873671154,-1.8586861318,0.2475954017,0.5019587238,-0.5299320723,0.8454041088,-0.2940850445,-1.0239458791,-1.2718737576,-0.5743993253,2.3903866566,0.7835009598,1.0595663382,0.9539551866,0.3254267337,0.3841999344,-0.1500656721,0.9509300406,0.6284230046,1.3519407224,-1.1009419123,0.2656309874,0.5852954025,-0.4837810675,-0.2872064518,0.2699163049,1.063038448,-3.2131063965,1.5771608961,-0.3551838231,-1.670481498,-4.2217883467,-1.2711547005,0.8572694444,0.8130525465,-6.4735127567,-0.1901205604,-1.3053329316,1.3471437035,-0.532865083,-0.1233264109,0.0938588512,2.242676944,1.1266754987,-0.1498747133,-0.0479976278,0.0658524167,-6.2722812719,0.1753903344,-2.5344651148,1.3835953666,-0.1055341034,0.1624639873,0.9340978634,-2.1955416456,-0.3738312493,0.9474896182,0.613266414,0.6495127345,-0.382817058,0.2375282143,0.2732833156,-1.0101093768,2.5616652504,-0.1281859305,-0.8291695,2.7678662995,-0.4675518687,-0.6297037684,-0.9685154955,0.8860370605,0.4097029113,-0.7988179981,-0.4642233588,-0.1157153684,-0.0522584955,0.0795346008,1.0100614883,-0.6721801651,-116.4431791748,2.8687633301,-0.050064282,-1.0805356203,1.4562160536,1.3984028776,2.1746999513,0.222617618,0.3499493943,1.0925707691,-0.0162529253,-5.5262125797,-0.2011935756,1.3277210461,-0.8008925914,-0.3633936116,-0.0831765132,0.2733722514,-0.3003911696,1.0545767964,1.1814372287,1.1791392625,-0.7962315691,0.581596927,0.6890474938,1.6570883434,0.6290503087,0.2945943411,0.3404637078,-0.127852636,1.1572965347,2.333476123,1.199887565,5.6575652644,1.068183439,-0.5634578271,0.5331773393,1.1384991903,-5.2627344167,1.216226156,0.7328230833,0.5954824565,1.3732934713,1.1829855045,1.3963170864,-83.5777000728,5.4158359793,-0.5032416762,1.0996386533,0.1176570277,0.5976033461,0.8566543226,-2.5942814986,0.2940017402,3.8894238836,-4.3367887223,-5.0336825554,2.6710218623,13.307192409,-2.3123641065,-14.4365556321,0.9413575031,1.6357810086,0.8824324244,-0.0274102289,1.3200167079,-14.8547135431,1.372305582,0.043273007,0.1094120145,-3.737131171,-14.7452136583,0.8553941776,0.7238065841,-1.0161206407,-4.9140389959,-73.2474118859,1.8428401124,-0.6648769495,0.1343948084,0.6793256684,2.428010001,0.775113973,0.3350830363,2.8717126054,0.9112034562,-5.6601272942,15.1499995975,7.5056369259,-0.2777596733,-0.4340938297,0.4680169966,0.5268755492,-0.1051626047,1.2768936994,-0.3691044994,0.7554722289,0.1277177016,0.6567516487,1.8641056075,-1.2325935651,2.2413263321,1.2011035535,0.1033336378,7.7461098644,1.1661532897,-5.6131450575,25.0956631276,-0.2289935402,1.1406634842,-10.5898942998,-0.8820392045,-1.3977371845,2.4355170351,0.7704286563,-0.1211107145,-2.8184912276,0.3403232929,-2.7034939155,0.2682533141,-0.0248474499,-3.3424709442,-0.9822940758,86.5682786833,0.6370646621,0.4930727697,-0.7836833408,2.9171496131,-2.5196434523,-0.3009016705,0.6615108416,0.1280251019,2.1149448332,-2.975742241,3.0260405234,2.5664210083,-0.9431010411,3.6084291207,0.1846367277,2.3807710317,1.3197983486,0.3266667327,-0.5373602576,0.8397757936,0.8256672083,-1.3326794562,1.1751138678,-4.2908966617,-14.5016287248,-0.8645179811,71.6860022272,2.424357271,-6.6601165031,1.081122372,7.6699476885,-0.5038803347,-1.3006720368,0.2502086113,3.7641836727,1.3579940382,1.2304196838,-0.5956157892,-147.4738447624,-1.7738016198,0.312156302,-1.5355242105,1.0492377797,0.3780541129,-0.0485709811,-0.0273456581,-0.6456103008,-3.354631874,0.996987545,0.9073589915,1.2431604945,0.2633467362,0.2496724127,0.8172502894,1.9051310401,-14.2572619383,-15.2555973723,0.81466888,0.4161297677,0.6043712476,-0.6980471126,1.2478767092,0.1209766272,-3.242900216,-19.7122932413,-0.0459141973,0.2821806914,-3.9049358833,0.4827462159,-14.7794018136,-6.161253395,-0.0866836676,-1.1025862277,-0.6232004867,1.0725861679,-0.3804583639,-0.6035061525,-1.998551601,-0.5227346549,-0.2076200003,0.7434599341,-0.7259302057,11.7520653033,0.787940012,0.8937033918,-0.1650090077,0.8116728672,3.7073802017,-11.4822663903,-1.615467382,-0.0496974963,-1.2207028523,0.2071031042,0.1442272051,-0.5180536473,-47.3978299154,0.614113339,0.7221061921,0.5441234677,2.5194516297,-1.4693153782,0.8000296489,-0.9327201087,1.9088844467,-0.995827288,0.9442474509,-0.4132622717,-0.0342678473,1.8743414709,-0.8757278426,0.2764450841,0.3769613181,0.3010223454,-4.6596566835,0.0312652535,-33.0194347593,1.6988980959,1.2348426104,-2.679537958,0.9687690181,1.0478109047,2.9621032785,0.5774748864,0.3491476542,0.2208408638,-1.2851233094,0.3250487879,-2.5817506164,4.7428494508,1.3913213542,2.279669711,0.6813814849,-5.0508595762,2.148020821,-3.3008629562,-9.1315733125,-0.1580133103,0.3787640631,1.0201257412,-2.0751585023,4.0641972849,0.4347193364,0.3692158212,0.3528709646,-114.6152863548,0.4234526205,-9.7495189647,15.5540853545,-35.0996162644,2.1262431798,-1.369467653,0.9302725516,-0.7864677986,-1.3386841448,1.3923924624,6.1355687129,-0.7534556838,-2.9792346078,1.2059294745,1.9309173051,4.6831264126,0.4862081236,-0.0594618853,0.382936793,-0.7342063793,15.8516661498,-0.1365730956,-4.8083953221,-0.1778777445,-0.3955483879,1.8055281271,-0.6303923687,-0.4263183216,0.3344230308,-0.7242370058,0.5140909519,0.5704922733,-0.4344790674,-3.3013928551,1.7007615105,1.7458924709,14.4000511545,-0.4893363622,1.3882849395,-0.2854967938,-2.3092679186,3.6239028236,0.6376630349,0.5929926351,-0.057304854,-0.6543315339,-0.3106451294,0.6181304241,0.377346832,0.6405661319,1.0682704479,2.0058656761,17.243254187,1.3212735757,-0.0425764084,-0.5268660385,-0.5750353355,0.6544481461,-1.5945226635,0.2515555629,-34.3176788966,0.6110012643,-0.4227551187,2.268997279,0.1694946773,1.2867972051,0.2723783423,0.9295640719,-0.6903163793,0.2806172263,1.7068352073,1.541389711,1.5289386507,2.5605814919,-1.7583537899,0.7523828808,0.5788400862,0.121621291,-4.1047562537,0.1864303141,0.9330338904,0.9148882939,-48.8540925772,2.5292455104,-0.1009756118,-0.2873891049,-1.2343590979,1.9032578188,-3.1230125177,-35.1792046404,2.2729823276,-0.0212754105,-2.2821651405,-1.6328375686,1.013496928,0.6517199597,-21.2190390524,0.3961364453,0.3381768011,-15.0156702455,3.7281955072,-3.63931682,0.3344009423,1.3656271639,-2.0027076788,-1.0689321636,5.2563610692,0.9235722822,0.3441886958,-0.0474063546,1.9519354516,0.0208436326,-1.7494780405,3.520371628,-4.8523659015,0.8203383625,0.7440654976,-0.0346832489,1.2144101885,-2.7281938583,0.0831555252,1.0665533425,-27.2047248543,0.9271674092,-0.7488659998,-1.0097838091,0.4112205826,0.2333943324,0.9112008688,-0.4926412661,1.7372951497,-0.6750845245,-33.3346751254,1.553792173,-0.6502912719,0.284480655,-0.9325799202,1.2294701227,-15.3223152245,1.6930013598,0.6144574127,0.8557411872,2.2065757761,-1.5343633235,-1.1292949836,-121.4614054708,-0.1767348524,0.9234059517,1.3430354915,-0.6830145068,0.409225528,-5.8429166246,0.6176366665,-14.1248948022,1.4858979022,-17.4265340114,-1.5770521674,7.7765664891,-1.3694849578,4.4559664353,-0.1447100357,1.1281307219,2.2352710434,1.8554986088,2.9940204097,1.9484476215,0.1569585529,-0.2665760651,0.6155228995,-1.6711180246,0.317639404,-1.7378959406,-0.1843485349,1.2118067908,-0.2230463243,-0.5420168588,5.8541255914,0.8671305671,-0.2078110131,-0.2830587872,0.0401375207,-0.5405219739,1.6712209899,0.0880607222,-58.7593029549,-1.5322533399,1.3608165742,-0.4355569162,-0.5893187295,1.7748136941,0.5040160308,0.9640824361,1.561042632,-10.446842619,-4.4984065936,0.7126835029,0.0376394921,-0.0498197835,2.0762269317,0.5762872646,-0.9903180555,-0.8097298151,-4.0085673319,0.7324534094,0.5174233296,0.5610274464,-0.9919133474,0.7466311371,1.0663148166,-1.4570807152,-1.0502562035,0.2856172295,0.6443524182,-1.0225502137,0.589862946,-5.7292629823,-1.1456668749,-5.1264318375,2.9410596375,-0.6451079064,0.4893335523,-0.7510622419,1.497283337,0.4365772785,3.7140711446,4.5473089827,0.5026602007,0.2849308807,1.502297945,1.185910711,0.3947571523,0.2514436258,-0.8881102819,0.2422033384,-1.1192091109,-3.2713631648,1.1050979951,-0.4721671111,0.5452398219,0.8080012011,-0.692938296,1.581466644,0.0615587794,0.7061299995,0.2543849751,1.9480295512,-1.3416172452,1.6988115453,-7.8332834087,-0.6681970835,-0.3372655939,1.2091181741,0.1723788149,3.1298305768,-1.1762232744,-3.3482361357,-0.5039043235,-0.229849369,2.326409517,-1.3785754688,1.5847725578,-2.6607990748,0.1487106082,0.8685763868,-9.2180529459,0.0635542117,-0.3929775181,0.547726944,-0.1268346947,-4.4947888414,-0.5431101453,0.8353729555,0.3456251882,0.6912533963,-0.014197524,-0.4869963007,0.1155149636,2.1654439063,0.759960043,-0.1333494063,-1.9521618698,-6.2442180971,-0.9249503124,-0.105317451,-0.6584127756,-0.5316117367,0.195155997,-0.1405209175,0.6012132729,3.725926321,-1.2485922277,-0.0873618866,-0.6949528826,0.3357654314,-1.6605218857,2.0427657066,-2.8103436606,0.8464431112,1.4774160185,0.001404411,0.4863943983,-0.5780192558,0.1288734651,-0.9177301641,3.9594063202,0.3532981805,-0.0372849119,-1.4241571611,-0.9412197529,-0.0881322326,-0.2136976102,-0.1674528946,-3.1750083233,-11.6351777813,0.1935240644,-1.0942504521,-1.0771276095,0.2345095761,1.3076209988,0.5490071972,-0.9772104275,-0.3737297501,4.8020436034,2.7176808678,0.6910359955,-0.89242667,-0.0564955761,0.6332237089,-0.0372835459,-1.2537205386,-0.5920680094,-0.8800628307,3.0888268997,0.6067182213,0.8507717487,3.2833634909,0.6993620592,-0.4744284382,1.0241895964,0.6106209336,1.2134251135,1.4835480221,-0.3837197587,1.1482848633,1.9969146285,0.4271395972,0.2904246705,-0.3199642178,0.9524510457,-1.2565494314,0.9966202555,-114.8343536459,0.3940735865,0.8192820181,-0.6864573908,-0.4538122605,2.0968386307,0.3278585009,0.2672405536,0.4057983205,0.8391443861,1.4527876553,0.1687185126,1.0975442246
   -0.7901903661,-0.7117003718,1.350111793,0.6817683471,-0.0566786415,-14.4596606371,0.3418409671,0.1703590146,-0.4990555382,-4.6581392829,-0.3530105984,1.1518351778,-0.6361826239,-0.6247798508,-0.1292840318,-3.8360129111,-1.0490185936,-0.2976497182,-0.3711235272,-0.3622832948,-0.2040393427,0.0071869897,-0.4587086804,0.9434302983,0.0872266701,-1.8295042582,204.4919496106,0.5690368112,0.1697554809,0.0491998018,0.5454847099,0.5516015037,-2.2216726662,0.5449663771,-0.453420908,425.9665602989,0.2991075028,0.8487689729,-1.059041105,-4.9597649382,1.9353785822,0.4011334889,0.6108948529,1.4155862812,0.6221342948,-0.1373386038,0.9147827986,0.3280729375,-0.1040418921,-1.2987345043,-1.4926467458,0.9579706686,0.2695947368,-0.2874542117,1.0093523106,-0.1034078351,1.349674334,123.0544812076,0.2076285047,-5.1243001224,-16.8443808707,-0.0137966521,25.4198663187,0.1799014146,-0.6401926809,-2.3189083745,1.3451059283,-3.9327310764,27.1260498266,230.825361671,-0.3238385216,-0.1430877193,0.7911443202,1.3995380015,0.2911546487,-0.3862574348,-0.2397776433,-0.4018654466,-1.9104208746,0.4499514366,-0.7042102019,17.6343228952,-1.5585101618,1.1929436548,0.2823169885,-2.1574927742,0.7603129463,1.0099407242,1.8444610906,-0.0107059007,-0.2868664616,1.201189343,0.3611905649,314.3685845862,-1.8843499408,1.375632989,-1.2534016206,-5.3343834671,-6.6488713336,-0.2588680202,-0.099823189,-2.7512998235,6.0172754006,1.9238302811,0.3871677482,0.6744490522,-0.0720137775,0.1775610963,21.0262368661,0.8759661271,-10.4255190367,-148.5248537051,79.5387550086,0.6489427609,48.9175535349,0.3116945697,0.3036269579,65.8935248424,0.0655901857,-0.1984116453,-1.1503661359,-13.4212653694,13.9898039028,0.6724659657,-2.7177988423,18.5129882202,19.2353521472,-2.6699403181,-1.2995538937,-3.6297534955,0.5204916329,0.5071937569,1.6157078666,0.2333375426,-0.3156185563,-0.4312697796,-0.4114141287,-0.7682425327,0.4552683816,1.8748769269,-112.7156310364,0.8775596772,1.0264453496,447.1351207955,-77.5864095674,1.1359064729,0.1573497963,0.6224646518,-0.7459664595,1.4082328482,-0.0670812273,0.9990610709,1.1531362469,0.9136893681,-0.3462214322,-0.4498977264,0.3075153733,-7.7460511925,0.0018504555,142.543281967,0.8551664875,-0.7379182772,-0.2217817439,2.0516712664,-0.7861200422,0.9502481442,3.220583755,0.5409882113,-3.8895542435,0.768975899,0.7776449336,0.3254454064,0.7665284548,-5.0103581814,21.7721171961,-0.7686043227,255.852705379,232.373455967,20.6380129807,-0.622238276,0.1319411914,-0.6483255932,-1.8101328825,0.4626399922,1.7248771242,0.5528839532,-0.3560254272,-0.2454949824,-26.1462680179,0.9048096042,1.1846193361,1.2087794281,0.76005216,-0.0968244713,2.5605993574,-0.4849462185,5.2180343134,0.329959751,-1.0807369109,0.7363527804,2.0841668815,46.7686957825,0.8541124979,2.6051743278,1.0102496746,0.0773804252,-0.094255231,-0.5944305954,-1.0178807655,-0.1470159338,-7.5575490805,1.4259873346,-2.656365906,-5.2194987122,0.8202507882,-39.6018178173,7.1716933737,-0.9691843864,-0.5592572444,-0.3613696244,-1.1583130422,-16.4586362005,1.4772787928,-3.0790804238,0.5872375367,0.3779211038,-0.6163345484,1.3506983681,-0.0001921334,-3.9010604496,-0.408082795,1.2927596518,1.8251069806,0.6079971023,0.288576307,-2.5566506663,-2.0740307604,-0.1855903902,-0.2496988492,-0.9575471505,-0.7974723459,0.6203651581,-1.1813324769,2.2452799925,0.6698614062,-0.1435460885,-0.641047684,0.7102118851,-2.1403569455,3.4051427937,0.903923565,-0.7914684715,0.8886139593,-0.054118523,0.7441077951,0.9087689346,-0.5441293495,-0.0341096715,0.7135905956,-0.2378544066,0.6375203766,129.6698767823,1.2032521134,-1.4834443881,1.9382298657,0.6734924959,0.2024578472,0.6333530533,1.2379862031,0.0841848447,0.6844368001,0.3683331629,0.6738399918,40.2533926796,54.8648828574,2.6780328649,-1.9193355011,0.8808825625,0.2802055751,-0.372166831,-0.2637232704,-14.9702807246,0.9544929218,1.0749499556,1.710464645,1.0533661989,0.8240814184,0.6213728704,1.8606365424,2.5016744378,1.2923358979,-0.5168842227,-2.4999722486,3.7088832339,-0.8942010742,0.4767681665,-13.0675416642,-0.6700905955,1.7700968146,-0.3766325511,-5.4498295516,2.8074678211,-0.9263833046,-2.526009883,0.0684998199,1.0604000317,0.327263064,-10.2493241144,-0.1320471938,1.1228073421,0.6122459487,-0.8463208585,0.230246683,1.5311331899,-4.0062489368,-0.007695618,-1.4236209391,-0.5337509854,-0.4174403267,-0.2176298847,1.5278032391,3.5620365048,0.0481246003,-0.9051539805,1.3978374403,0.1323986827,-0.5470249908,-1.0095546512,2.6751916208,-0.4477152072,-0.4706434118,2.6488538055,0.110304444,-0.256736744,0.6445108512,0.1341111999,1.7009500812,0.7994864999,1.5124213602,1.5098770177,-2.0539168563,0.8190072394,-0.6498283699,-0.5451043354,1.6680024891,0.7776563049,-0.8977983311,0.6486412999,2.2571368437,-0.4389673887,-8.3487984415,0.7009259864,-7.8856944918,-15.0162542969,0.6096658739,0.5043713933,-16.7218507093,1.0027507902,-0.8481281567,0.0302299154,0.8193737211,-0.517964844,-20.2711715168,-2.1020397139,1.6058211769,-0.169316667,0.5819179866,-4.2825292024,1.0873477274,-3.3337822003,-0.8388679633,-3.7386793383,2.5456974827,-2.0099425841,-1.3775277948,1.7545705579,-12.37487618,1.4352871215,0.5585305261,1.9797383771,2.3321393939,0.0503170917,1.2444967934,1.1077154047,-0.0172984376,0.8428114337,1.2704316486,0.9646120489,-1.3235294701,0.0926050953,0.2953855436,0.7984899465,-1.0690947984,-0.0766707177,0.234022037,1.7141744706,-0.7480145398,0.5091509255,-0.2040993192,0.4368059717,0.8883840526,0.377411942,-11.4582635088,0.4962524459,1.6997168331,0.8074308207,-0.1813434474,2.8859210796,-0.7217117144,1.6638645837,1.2259855907,-2.5729348424,-1.5812377038,-0.2824512425,2.0638392463,0.4891731107,4.594378951,1.2969227783,0.5140138867,-0.5499697551,-1.6565645209,2.9166726224,1.4970962837,-0.5344405195,-8.1090348879,1.9857826718,2.2536616128,0.2232670116,0.1206178295,0.5909773597,2.818703467,-3.5527315358,0.6859651788,-1.2490049384,-3.5411342472,-3.6982735307,-0.8612780997,-5.0384472353,0.9125123195,-0.9234551457,0.1878199524,1.0846594346,1.9264233579,0.8136045952,0.8667508898,-0.360076144,1.5948264463,3.362158914,0.6717673482,-0.3525702401,0.9325664997,1.0040185163,-0.0750248834,-6.9334626796,0.6003232183,0.1939871985,0.1158856438,2.512547431,-0.8256078094,0.8484291398,-0.6787079318,0.6922834178,3.8833245917,1.524134551,-0.7171018519,0.9367126737,2.2843611541,-0.8857501708,0.9133143052,2.3659325444,-0.5954354323,0.7638445313,-1.5538763013,-1.0569110791,-0.3047824907,-0.915050465,0.9555660494,0.8159006795,0.7020851283,-2.044258673,2.0006725395,-0.2884010363,-0.3740830125,0.2380174554,-0.2780306318,0.7011031994,-0.2068828489,0.3163864475,-0.5607284392,0.8998139117,1.6798802419,-1.2072411842,13.2022131381,1.2691794127,0.9698780818,0.9994976852,2.6772182449,1.221820036,0.2786416171,0.0032810836,1.0707662519,-3.1562571687,0.5039114235,-1.3339019653,0.6095406733,0.2435262062,-14.2839978427,3.5265171301,0.3484949239,-0.9449707582,0.3448560863,1.0431098893,-0.0355138761,0.6739645041,-0.0868347501,2.1849059187,1.163064591,1.2105563615,2.8568772507,0.8678444674,0.716619283,0.9761838801,1.0303456506,-0.1999405047,1.0208280144,-1.2974404365,-0.6663849349,1.1209135926,0.8155919114,1.0143165207,-12.3073378773,-0.5249434436,1.742744175,-0.266631379,-2.6821736001,0.3617335888,1.2146325465,1.2766585919,0.9133635322,0.5566293756,1.6966041766,-0.0284728112,0.3241133689,0.4858318281,2.2442977867,-0.1215759785,-0.373092894,0.159457229,-0.8021541436,-1.6153871197,3.2912887808,1.8318736809,0.6490027638,-1.5210151759,0.4818969508,0.9097190541,1.7800237066,0.9227776317,2.0349568111,0.659554728,2.2883668534,0.743298053,2.1747773087,0.7102449115,1.2358998443,1.0444490382,-0.5933424887,-0.2732460311,-0.1828119447,-24.6025230642,2.1184018335,-0.0821259303,-0.4245923485,0.8610582144,1.4800418887,1.5474502299,-0.1491876488,-0.0069620062,0.9251416458,1.8735754356,1.747139584,1.8041220803,1.7196084131,-0.3831569336,2.0718158988,0.2725899189,1.0791853264,0.9679098222,0.4162928222,1.5825344419,0.5380435537,-1.4616496475,-0.2737221332,1.2653872003,1.0227907919,1.0020126376,1.3375469653,-0.0873104585,-0.0743792662,1.4476375829,1.1884593174,-0.6165671316,0.3136156282,0.8695604989,0.8284113481,-0.4828381212,-0.9074159801,-0.7056828743,0.9458437914,2.5465074879,0.0566769882,1.8384015328,0.8602461508,0.120872448,0.2909577465,2.7144782134,6.1853265118,1.3272227401,0.6646911911,0.9229391823,-0.4956552626,0.8566648068,-0.4149836459,0.9791615579,2.9437095853,0.2893366709,0.2203384758,3.4868148228,0.4784396103,1.7835052582,0.0680911882,0.0125745681,0.4295143388,0.540760481,0.3854397085,0.5056590528,1.2385053082,-0.8856269571,0.6936851946,1.9664013909,-0.4071963002,-0.4146653584,0.732164957,0.1358811708,0.961373008,-0.6592706412,0.6133371637,0.197429797,1.5308760316,0.7334770612,1.2597770359,0.9698058713,-0.6844906583,0.6572547808,-0.1433675784,0.2309855003,1.0510212613,0.6058737862,0.9496453877,-0.185172632,0.5897639916,-0.3970223563,1.0251057502,1.0259010333,-0.1791410058,0.3747833006,1.206955566,-0.9687047877,1.115860903,0.5614588524,0.118894697,2.2949083588,0.241879835,0.9718669584,1.641080521,-6.096716756,0.605277139,0.5243853845,1.0965077359,4.070543279,0.8750790123,-0.5756611418,1.3574237977,0.6000397549,1.1617252832,1.8463400742,1.821155002,0.7110890741,0.1534937949,0.1697830952,0.9499382125,1.7936849101,-0.6243942822,-0.4385868618,1.0429295407,0.6817028713,-0.6393245166,0.0389435378,0.9692460771,0.398694264,1.641303289,0.5849884154,-3.1130366012,0.665825093,-0.6818140618,1.1114724854,0.5376269313,0.6025507977,1.1531584192,1.1893677573,-1.8235359097,1.042958179,1.6452810559,1.1043055638,0.0726031079,-0.0445153939,0.6245153241,1.5036421733,-2.4523631686,1.4352242964,2.3122276069,0.9275876468,0.4017586106,1.0202946779,0.1414062504,-0.6036214714,-0.0377284404,6.0762444493,3.5816835863,1.3244662458,-0.3616992689,0.6253742876,0.4401195945,0.1649250407,0.4658098148,1.6081852354,1.2184355009,0.3648853365,0.8617756446,-0.3602789574,1.3745718309,0.8964592563,0.6654720295,1.1041491463,0.587131636,6.0149552264,-0.4508583507,1.4262905001,1.6607948333,0.8071319832,0.4783188782,0.5434501859,0.3717967998,0.3449734945,0.7180391168,-0.2576501824,6.0101400478,0.0033755954,1.1673147261,1.0014977322,0.4973554635,-0.7600830068,1.681380083,0.9537489856,0.8755139413,1.0873356091,0.1330090683,3.6980743803,-0.4116531509,2.2806231411,0.6404043796,1.6812215557,1.2998425607,-1.1779073602,0.0991314947,-0.5833447266,0.26847567,0.7307390627,1.2722675397,1.1201585993,-0.4211705459,0.9364968147,-0.0581147003,4.0329091843,1.3094605091,1.6360393555,3.1205336496,7.0187582559,1.3120247999,1.5375031363,-0.2294569162,1.1740419277,-3.7982878978,0.7838151179,-0.6127286774,1.4148841202,-0.3075630096,0.6417313017,9.2297250948,0.7409246671,0.4875516529,0.3529535171,0.953955709,-0.4626363166,1.8644445048,0.0890540353,1.801306778,-0.1231654566,5.4943944174,1.0960187237,0.0432671228,0.4068635063,-0.0822441132,3.0154996607,0.3686003988,-0.6007540111,-0.0359512528,-0.590720791,0.2808685529,-0.5047137694,1.0532477489,-0.5871314855,-0.0400148531,0.2123256515,-0.9353676907,1.1167824973,1.2055388461,1.57947891,0.9931069919,-1.4519029089,-1.7414894006,1.1256062322,-0.504176309,-0.3602437974,0.0015921507,0.3564031128,-0.3803369787,1.1328697848,0.3093505271,0.6917724837,-0.2738607151,1.9487247108,1.5578768801,1.0798908075,0.4892212076,0.4575558571,0.1847889226,1.3437451526,1.3340342528,8.1066735762,1.2374146292,1.0446830649,0.6291381029,0.3332620896,0.2682090034,1.2139490789,2.4314338619,2.209371156,-0.3762373339,-0.04019717,-2.4622371119,0.9575936345,1.1404619881,0.4327865958,0.1314522708,12.3318303496,1.0891025252,-101.6981796363,-2.3041653084,-0.8819983363,1.078624095,3.4348231428,0.3630382751,3.9427194368,0.1442000477,1.8025621762,0.467160141,5.3833095277,-13.8603843158,0.1004057854,-0.8564529357,-2.1636247552,-120.2866592833,-0.7366769065,-35.9798321,-5.3532515407,-13.6921012081,-0.1680197225,-5.526869846,0.798424895,2.8312933418,-0.6531607188,-12.3310580972,-0.5549715126,-42.105945609,1.1191978507,-0.8796703649,0.243875338,-9.3503875841,79.220628121,9.380891369,-0.4000554559,0.3191466949,1.623405352,-42.4318245012,-2.0677355129,0.2235846001,0.4456743212,-0.5771138896,0.6633072178,1.0412938187,-0.228378209,-4.7010067563,-5.3568463697,-0.5462400829,62.4903276112,0.2672045876,0.1381904407,4.0145052421,-0.7471420064,1.9365189239,3.7841128024,-3.607235361,-1.8022209668,96.6629553021,-0.9009223205,-0.9094181367,244.8878808656,-0.9523384287,0.3823708107,128.9340940382,0.1318172786,-136.9806025441,-0.0628792985,-1.9030765566,-15.3292359848,1.123623451,-5.0670447228,-12.9859753327,22.0976216172,-2.9156027597,289.5446947918,-5.1760688688,-1.1747468744,-2.7273123491,-208.2647214059,-42.4285887878,0.930274631,0.3102390397,-1.0506546736,2.135996101,295.2859951736,510.8498999306,-4.8403368385,46.9765559445,-0.9401569475,-1.5862341791,-0.4082496701,-31.8470359048,-2.1195871314,0.2444918715,1.7457586357,-0.3477941135,1.1162656712,0.6280737845,0.077413011,-4.1253729254,-0.7957840127,-1.8580008126,-42.472710185,-12.3163878258,-7.8765095534,112.5125580768,1.105478321,-17.2521508155,-32.3540774506,1.7951712863,1.3537463474,0.2141653768,-8.823632428,-15.4065460843,1.0977295203,6.0357273297,-6.2481773369,-175.2386932161,0.8641289807,0.5647381963,0.2725800562,14.8130125165,0.4306977134,-5.5398590066,1.0697615855,1.1792330942,-16.0338645259,-4.4742786836,0.4033973087,0.390757177,-13.6577089067,0.9666336983,0.4369178986,-0.6655537842,-2.9883962875,-34.5120429214,-0.1443856034,1.465745385,-3.5287264842,-0.1183041709,1.0860493308,-0.0755188443,-0.6817656517,-41.3790449297,-27.9870370249,1.2760017493,-114.2679757008,-0.2801033712,-0.7107817887,-14.6999653874,-4.9719091085,-4.189722437,1.0139074441,111.6320667726,0.1677285223,-0.8270725868,1.3904621092,1.0775064648,0.8618099646,-0.2832031624,0.3122816356,1.1860945657,7.7646137404,-25.7357758638,-0.97545409,-2.484002131,-0.1758721937,-0.4602057057,-5.0005982249,405.1210168291,0.6656971589,-0.467301786,-1.0883893965,-1.8150108315,3.5578431681,-10.0761101057,0.5056644397,-0.9651328484,2.8789478596,-22.7084647942,-0.6287016249,-10.0876903038,1.6643968876,0.1826913532,3.7845148089,0.6363696288,0.3541191939,-0.3857036605,-14.626408697,87.9337002212,-1.7415235265,-0.077165873,-13.8472612914,-0.8667071807,-6.3788758099,0.5443030453,0.525399533,-1.935786421,-42.8643930689,-0.1103390101,0.0885710563,63.9252968344,23.1841006087,-0.3929787228,-1.3784399582,0.434505373,-4.3412190748,139.8316625912,0.511693719,6.6320335236,0.4631296301,-15.0405721117,0.483930583,-0.2322054938,-129.1352884104,-2.2222765092,-11.8635519226,-0.0395559457,-21.6837301976,-0.121082639,0.3860814676,-4.2764378314,-0.2748972015,-39.587805021,279.6723313569,76.8725451129,-0.4628769033,-1.6839553548,0.0081007742,-6.1562470841,13.5334144391,-41.4219450749,-1.5733425098,3.0149146756,-0.4445585273,6.0738991284,-6.0108826374,21.26059533,-1.3404512127,2.0441368507,-2.4659078239,-5.3640865705,-1.5622788376,-1.05155495,0.7340395382,-9.8612145767,-5.6129417914,8.0127254813,-2.7908090819,0.2722719473,1.4968044005,0.3061582848,80.2238048669,-3.15750816,3.7980054123,-0.0649926069,-0.6287453643,-5.1215361653,-0.4501389985,0.6510145099,2.4515723155,10.1398918264,4.6597766665,-1.4228671857,-2.6777624444,-1.6148214748,-0.0715440693,20.54573184,4.846627863,-4.7530877014,201.3612404974,0.5642674931,2.1392893278,0.9556964485,-0.0308882286,-0.2568553659,-0.0342707967,0.5973262568,0.5633847914,-1.1589974001,3.4579284103,0.9255394401,-31.5931041233,4.8348592016,-108.9857778258,1.404402479,0.2897212936,1.439735434,1.4665471295,0.06210059,-0.5299372637,0.3879396332,1.4340621095,-0.7611015913,0.6182652054,2.4163933202,-0.5298705065,0.2795281551,-2.9914464007,1.191642726,0.2391371203,-0.6972822062,-3.9965781453,0.7783253057,3.7167292333,-0.9328706301,-36.9713927902,1.7222460344,0.1504890798,-0.2750180576,-3.7540659315,0.8496099766,-48.4833019361,0.0392930143,1.5549130676,-1.0477857704,-13.9465022956,-0.616384044,-0.1431417883,1.6597397242,-10.1675007369,0.9341450763,-1.5612954871,0.680623936,1.9742524889,0.8917560883,1.8825979468,1.9460197623,0.4133585754,-0.354695017,1.6180600626,1.4706357789,0.2140356572,0.8070410652,-0.3067856955,0.0648560528,-2.3049139045,-0.0786980561,0.5991987954,1.3754704847,0.6214580179,-0.4106714153,-0.2213474707,-1.1464777607,0.871863744,1.4944811335,-11.3906929634,-2.1035685056,0.5028310811,0.3753125989,1.2561217189,0.0299047305,0.618971201,0.2824797938,2.0009978921,0.638496049,-5.6012456592,-0.5463222915,-0.2970429523,1.0588026886,0.309458512,0.7442218815,-14.1241394968,0.7624439899,-6.0620518681,1.0551499542,0.1089632146,-4.1192919791,-4.3840111016,-1.2421690574,0.6314596623,1.071548151,-0.1173715365,-1.0902427585,1.0803564097,-36.6573455166,-0.3334445676,-7.8952214902,1.090169592,-26.755879877,0.3170146555,1.3044944869,-1.5075161751,0.7538220986,1.5684154501,0.2566620689,0.8280236768,-0.0581243216,1.6977297966,1.221931756,-9.8635445529,-1.7308101482,0.0093926716,0.1494955773,-6.1043600925,-1.4010317303,-0.1496674101,0.7105971346,-1.777133378,-33.4543894641,8.7371186335,1.7496544031,-2.3733957208,-0.3970056545,1.0548917927,-0.7679501501,1.2709364219,-2.7753376636,-4.9830927067,-1.7476474752,2.1273144185,-0.627711549,0.6048602079,2.1807642481,-0.0169451991,1.941398873,1.1129948784,-3.9191961261,0.5476120603,-0.8754945764,2.1023387603,-0.011330132,0.8476862137,1.0325821833,1.4129239876,-2.4741909512,-4.5626631146,0.7095957767,1.2709026776,0.3288467275,-6.4572509027,-0.6014646622,0.2167407815,-9.734955057,-7.6689708825,2.0271938402,0.2479363705,-0.6388522087,1.951792611,-0.3641689047,-0.6829908397,0.0567549478,4.7093327517,1.160226621,0.5473732616,-0.8218870205,1.4669676441,0.474084839,2.4936522563,1.3260406858,2.4436412464,-0.4791031633,0.5262831923,3.9406999827,-0.4078662328,-1.5687550189,-0.2372084244,2.2471613214,0.6045598379,-98.0631413486,3.578795306,0.030404685,0.22896845,1.0798247429,-0.3137984408,-0.3373570299,-0.2770726611,0.49302616,1.3921799531,1.271496512,-1.7118010546,1.0232594868,-0.9140096123,0.0961538468,1.5696591261,2.5824612565,1.0382156754,-0.3974620435,-1.2443939021,-1.7804741256,-0.191563916,-0.5399421245,1.4082476525,0.7660370911,1.4264405281,-27.9641452395,0.3520877854,0.5910209186,-5.9324655791,-6.3324448603,-2.2201958906,0.5095625607,1.1190625609,-4.7014964952,0.573682673,0.5909827649,1.9740973198,-0.8286275192,0.2076430391,0.7487032368,1.6431529808,1.4401174328,-0.3239067885,0.9419104082,-0.7162821626,-4.7684601945,-0.7151168816,0.0510487133,-0.2972453003,-43.3359508146,-0.5417206406,0.1174887531,-1.3881102492,3.2445329592,-0.1493997177,-0.1623763882,-3.128319885,0.4204952751,-7.7457687522,1.0010627439,-4.0154910879,-0.3914143568,-0.1027960942,-0.2793081782,1.4680450892,0.3559819266,1.2183679454,-1.5725459046,0.3170155484,-0.6558619195,1.0079715472,-3.9499067245,-34.0268197511,0.7025989189,-0.5157108111,0.1316601571,-1.1091448595,-100.5593463325,0.1763526145,-6.7456265181,-0.7993395262,0.5009308208,2.4812055316,1.4489482828,-1.0659505797,1.3922130744,1.3333254628,4.9532712823,-4.4972254949,-0.2254650758,1.2432347194,-0.4296429113,0.57079754,0.5168448329,0.6174925922,-0.1607106434,24.4106293913,0.7350527138,1.4110694065,3.1878362392,-0.1675046208,0.0091506933,0.9187805123,-0.257304288,3.4144466795,0.7213745054,-0.2488445982,0.4086060257,1.5925766681,1.6725249395,0.4975832448,2.0623810577,0.2031513803,-1.9651360037,0.6145221867,-10.3886457546,1.6537313914,1.6497322942,-15.5404384439,0.5522698919,2.1290943769,5.213324798,1.8011964197,-0.9182436726,0.8707744526,0.9258157925,1.8684864506,5.9502371602,54.7371913653,-0.7595552088,1.1895370796,5.9113102813,-0.7377795268,-0.9829935452,1.164320147,0.7483863813,0.0958539237,-41.9749941323,1.1607141712,-2.4019611327,-0.7673466781,0.3838545812,0.5641914031,-1.1810985088,0.5268406511,1.6179514363,-1.3677906224,-0.3124543801,-0.3139451387,0.4361493554,1.3668494935,-4.6353327066,1.1891628423,-0.1135762351,-0.5070424877,-0.1140925045,-0.6497300542,0.6480856506,0.3764591835,-12.2961974087,0.5438443098,1.7340004661,1.8059731628,-0.38197303,-0.9040369477,1.0559945322,0.9056353099,3.6878198959,1.6098796908,0.1733111828,-0.2965004865,0.1664264095,0.7593674245,1.304719214,-0.667948207,0.8191365317,0.6927890999,-0.722312337,-4.5342445237,0.1505429291,-0.5375382376,1.4855674286,0.0237545037,0.7991062795,0.2999265428,0.960858255,0.4305480327,-6.7422174657,0.971495888,0.3113196473,0.1902413613,-0.1976688048,1.9481414197,0.1890764485,1.199579509,1.9151461961,-0.1326853099,-0.6273204201,-0.3096781792,-3.7839678581,-4.3402505174,1.1595068988,0.3273313582,1.860784527,0.8782734987,-0.5845848355,-25.0654866182,-0.4276967815,-2.0277962082,2.2116486741,-32.4216466494,0.7982102868,0.2002581302,0.271745055,2.0728163443,-0.3684398678,1.9947372361,1.0951819885,14.4287297628,-0.1109837993,1.5025508354,0.8524103704,-0.333358976,0.4627421421,5.4071457232,-0.2377993431,0.1801375518,-0.5978659531,0.5240154573,-0.6031012397,-1.242824909,0.3094022191,0.901415238,-0.2901363579,1.3333056423,-0.4900755584,0.2971308915,0.7724609338,-0.1997223841,-12.7907498061,-0.3115247799,0.7726085789,0.7197577001,1.0043499812,0.8982321911,-1.2815521201,2.0234284476,1.9853609053,-1.6385530206,1.4850843181,0.2040590572,0.6784015625,-3.0447149434,1.0735906793,-0.5515148785,-1.1798842413,-0.8440435466,0.2175593524,1.9641018061,0.3246268045,0.2834180541,-0.9718736386,1.4038102691,1.1755505562,-1.7156189613,0.9254325502,0.2638963787,1.2699403737,-1.2194046715,1.8442767236,0.5342472262,-0.6057135672,-0.7269608152,-0.136518507,0.0646574178,0.0064276148,0.9909076996,2.012624557,0.3959247607,1.8606674484,0.6152413697,2.008542658,1.5470750544,1.6011119224,7.7658398161,-1.001990006,-0.3587305356,1.8335128971,3.6472403534,0.0987869802,-1.3989352942,-0.3509118078,0.398090903,1.0200761644,0.313056845,0.1653554308,1.4286408539,0.390615312,1.9251392712,4.8844329507,1.8741988308,-3.9156646114,1.9012611888,0.861655339,0.4403371187,-0.3952534461,-0.4471459807,0.9446692059,0.4610553957,0.2764374658,1.4194953262,-0.5287924541,1.4514772705,1.326464705,-4.010287986,1.2927467848,-13.0567545576,-0.2305071525,0.9766091449,-5.6516879143,0.2112244754,-0.2592573368,0.6952243213,-0.5888818653,48.6879435662,0.1764134177,-0.0320256257,0.355981243,-0.1296012921,0.7499748674,0.2335549329,0.1533031237,1.3517000414,-1.3537743617,1.6801650511,-1.7771956349,-0.7155776867,0.2127995116,0.3041939855,1.8602619162,-0.2700520711,0.0399110864,1.4599113642,-0.8592299842,0.7548253446,-0.2876585803,0.6273221264,1.1458506876,1.6202621334,0.6172784434,1.9675988693,-2.2324319072,0.9679529146,-0.0606185399,-0.6708631358,2.0213312112,-0.6432981462,0.6568223491,0.6280288582,1.5013183332,-0.2732728072,0.9385078007,1.0002267281,0.6849494635,0.0766465601,1.4794110413,0.8181928535,18.7877900224,-5.6918585379,2.9775669771,-0.0905621404,0.9312585582,2.0700863337,1.246863905,0.5421057415,0.4341013724,0.9933754847,3.1132427207,-0.1715635642,-0.6361147419,-0.4809887435,1.0510079274,0.9378623829,-0.5534447368,0.9148886813,1.3210035235,0.9180886042,-0.3974022509,0.4655048875,0.2790556864,1.1046200581,1.6127097073,-0.2242640906,1.0758891443,0.9425286408,0.5047885916,0.60135596,1.3133460247,96.9063020679,0.5445752427,1.6052860925,1.152393333,0.1453620102,0.5821544851,-0.9997320117,0.7298178239,-56.9280266018,1.7602838526,-0.2577412664,1.6222874163,-0.4045901446,125.30905074,7.3785332571,-14.384061031,-0.6029689674,-0.7066683867,1.5856508844,1.0868909671,0.5488073757,0.4617429813,-3.9964026618,0.8533940055,0.1922596419,-0.1531759204,-4.4321198724,403.4279779551,2.2519085542,-2.0691618905,-85.293715675,-0.3000676841,1.9458806055,-0.9515852224,-14.4516275315,0.3765828916,-2.6136367817,-30.7720689167,416.8725465821,0.4691230104,-0.4902881875,-11.6869951308,0.6961622396,1.0895388197,-4.3973987847,0.345258683,-5.0984721083,-3.2886804507,1.4106157944,-0.1838940051,-0.6004993617,-0.2160822192,-0.9814065484,-7.5475422454,1.1011177373,0.3685815341,0.8782517661,-1.2473106089,0.5886790664,-30.5840201583,1.0207334483,0.3905009064,-40.8427928178,-13.3400491306,-13.7532371758,-0.8442254121,-1.1218948312,-2.5938006124,0.5357495633,0.0568525154,0.554410693,-2.9324334057,47.065886807,-0.6031330866,-0.4447240527,3.3932557562,-1.0151601768,-1.2766865206,0.1895367501,0.0157395548,-19.1224017535,-6.7151617034,-47.3650161557,1.7131529259,-13.5952589814,0.3447167767,-9.4263171931,-1.7255339346,-12.8565616733,-1.0269991589,0.3373378207,-3.216546008,-13.603396314,23.375863703,-0.9071188191,-0.2635096261,0.5919295903,2.1714427664,0.638066078,-3.0408550338,-14.3643276951,-0.9687826229,0.1083956105,-1.6809577719,-7.0259809266,0.6575911034,-5.5103918489,1.8793635229,-0.6075705957,0.6718522005,1.8039324933,-0.5559715523,0.2821258654,-0.4173630105,-3.3823267424,-0.4149916843,4.2430980121,0.9738735108,-41.5586594677,-0.5995762401,5.3769426882,0.449876079,-1.2560333051,0.3460882344,0.1506936313,0.2344745296,-0.5705469616,-19.931472306,-1.5102304685,44.1875242399,1.2390786814,-0.2079771436,-2.7246764976,-1.052875294,-0.2926771045,0.0519536754,0.3291315518,0.0100776998,265.0977888201,0.0310707504,0.8469171964,-1.9006106488,-1.3605637386,1.2315313103,-0.00939842,-5.5922978615,1.020276062,-0.6496356553,-0.7530740222,0.4199567542,-34.5127019572,-0.0879579043,-15.0766609153,-4.1242783886,-1.7426792597,-0.4367634932,2.0408325165,0.4875746533,4.9002558405,0.2807650688,1.0660343564,-3.239885641,1.0435960054,-42.7268383824,-5.4747105855,-2.2562968847,-0.0308225411,-14.279608193,-1.2006918455,-0.6384992335,0.1136224568,-41.2467668376,1.4105735912,0.5624782158,1.1840878633,-2.2787255708,-0.0228148367,3.413634238,-0.9837305745,1.6679456448,376.5759969107,0.4832397299,-1.0034572821,2.1031885219,2.9509250559,-0.0908983339,-1.9235719856,-13.4985302163,-0.665088061,-1.7486654766,-2.6767082657,1.1184886276,1.9145075479,0.49530193,-19.0087335548,31.2632488245,-0.8270707303,-0.2631209885,143.7277029668,1.2845400235,0.3917578499,0.7009515903,-0.3983930577,-5.4737704379,1.4219678532,0.3817579412,0.5907401102,-1.0783730399,0.5283823217,-33.2884478047,-0.2854824591,-14.0451395332,-4.1704163421,-0.4810781668,-0.409345079,1.4060485684,-14.5409185547,0.8552832268,-2.5760801645,-0.1542467315,1.2089712266,1.2349847092,2.860462397,2.3946891374,0.8965449206,1.9574413883,-3.4058951881,0.4238074535,-0.9047494322,-8.100427007,-0.9559618003,-0.1026189853,0.1437058709,-1.1607374761,2.8248192985,-0.8115569624,-0.5081287547,7.2400981393,-38.6600715531,-8.6872265883,-10.8936031256,6.0630256314,0.1028807466,0.4850493503,-5.2824105067,212.4580347362,-5.0168967927,322.8927643679,-0.397497819,-0.4498877825,-1.0676133731,-6.4567617349,26.5867429516,-11.135074595,-5.5287708068,-0.5260990523,-14.7292787573,-11.7096785413,0.645898079,0.0585926084,-3.8889791837,-0.9821798502,0.1335903598,-0.8351290924,-2.3360960095,-0.4607981413,0.5182235696,2.4212465706,-0.4726110565,6.7824291607,133.5777087158,2.1833488438,-0.8178396591,0.4372408585,0.2762086305,2.9074715373,3.9679299169,0.5211084739,-1.4242821908,-2.7390677757,0.3454263399,0.7827132398,1.0084904019,2.2739951715,0.2651067021,-0.0145264104,0.0183852176,-0.022271206,-0.3831980641,-0.805166303,1.0016511231,1.6818743265,0.2855384909,1.4549856716,-0.0715700563,0.5624503119,0.1424836851,0.9209761145,1.5128886851,-85.3832158007,1.027435989,-0.5513076353,-1.2988746576,0.6743611349,1.1088984985,0.1863990105,0.7339813565,-0.9390227196,-0.135789586,0.8344343067,1.7995791581,1.3067268455,1.9739783474,0.1227529093,5.1022784008,0.0033848934,0.2596123027,0.9405821918,-1.2255743223,2.040454718,-0.6395453898,-0.9796381948,1.5673318874
   -0.5117187696,-0.2114724053,0.5784405164,1.4466435974,0.5475224896,0.2792597555,0.4106028677,-5.768007561,-0.3176603386,-0.2166704205,4.1018590669,1.4734121495,-0.4476699341,-0.7034198503,0.2495367389,1.4641080474,0.9320092304,-0.7831648519,1.7284080377,1.2201753658,-1.0249972337,1.1291151812,0.3582387434,0.2637089519,0.855440287,1.3865729739,1.7503451783,1.0056875149,-1.3346722886,1.2867227896,-0.1176709041,0.6762683533,-1.0852570812,1.7012571797,1.5986858362,0.7278967192,0.8482839651,0.6445444072,-1.1505048574,-0.7790763304,-0.4691312391,-0.5188650238,2.099721415,-0.5042875286,0.7135567711,0.1699058505,-0.5428524179,0.7311987727,-12.8833068908,0.4318196551,0.212455077,-0.0310851162,-0.6236456503,1.3433961797,-16.5048363487,0.4039658081,0.9862776603,0.8388661095,0.8050763199,-0.1621999609,0.6039635651,0.0252952058,1.0854443521,0.7446481154,0.5396433555,0.3102332883,0.9611540895,-3.2270865401,-0.746476392,-1.4994144851,0.694652053,0.6230571281,0.1558491086,0.7492966355,-0.7566653216,-0.2455016421,-0.2607323771,0.1319182226,0.4165826948,1.6048832013,0.7366743615,2.2010401997,-1.5363202978,-0.2403229367,-0.7343562084,0.2510515154,-0.2256012862,-0.4672190339,0.704968696,1.3945056955,0.9269772538,-1.8555331332,2.026245223,1.5448302978,-0.1839563278,0.0699553595,-0.5505398117,0.2549524317,1.2181698432,-0.4820868945,-3.1224964438,0.8708944963,2.9876724347,0.1341449845,-0.4297828314,1.0072322865,-0.6896353663,0.8190380405,2.7469098096,-0.5530024898,0.4925619829,0.2412601764,1.9853673911,1.0073633597,16.4357773406,-0.7789604268,0.6958915527,0.0229737243,-3.1801579511,1.1360031844,-1.3694977203,-0.4824150608,-0.7428792707,0.7836607072,1.4642342639,-0.7616591163,0.5499803542,1.2294143574,1.4373507117,0.0273173609,0.7307374538,0.7649290455,-1.8492745756,0.8377558547,0.3288086935,0.8185390238,0.0701822238,-0.7177752253,0.1846277871,1.4328131533,1.3599576614,0.8815214385,0.3290720952,-0.1629040896,-0.4830480565,0.6404504772,-0.0122809932,-0.1304478909,0.4113503299,0.5343720695,-0.9406729378,0.4122975526,1.1727550414,0.3048710765,0.2688039825,0.3333268504,0.7241359888,-0.1661618543,1.2935895701,-0.1365715667,0.2569899182,1.1310106793,0.1449790879,0.0006801283,-0.6266190639,0.4213785132,0.6357255297,2.9496725138,1.1268097114,1.3948008369,0.4016384813,0.9814967782,0.0078910012,0.8637665673,3.2009473231,-0.5831731265,1.5833328424,0.80592259,0.3101262677,1.2364934233,-1.0255726862,-0.0622781875,-0.8586682038,1.0194949658,0.4950343618,0.466501789,-0.989837069,0.8673563835,1.8429605781,-0.1090503683,4.5100149533,1.054132119,1.6524358495,2.0011868789,5.5007246792,1.400720053,0.3661772071,0.8988385201,-0.4595944019,-0.647463897,0.5835376679,0.1805057078,0.6228577653,-0.6480948164,-0.4442838689,0.7598940061,-0.6334949666,1.1798491054,0.3527560122,-0.0559136906,-0.8143564757,2.9632672969,0.4464656985,2.7591109699,-0.6116183992,-0.1955456092,2.5529161933,0.384853393,-0.7816640078,1.1366874732,-0.596368748,0.5015390986,-0.6861688288,-0.8927907185,-0.3087254206,0.1107873097,0.3260130762,0.1426309543,-0.678337052,-1.7678779109,0.5870613442,-0.7228570478,-3.7779006912,0.3630850904,1.1017351237,1.5212733279,-0.6333840561,-19.145624886,1.7918863237,0.9305727614,-2.4958678042,0.8577777313,1.3769061948,-0.654564317,0.88653951,-3.057382937,-0.8104540475,0.0181214686,0.5807505838,0.6781850093,5.4584956816,1.4365001856,0.9790049938,0.5749214685,2.4299011653,0.57811941,1.4267798076,0.5323572661,0.5885715044,0.3369892785,1.4009000104,1.2964616308,0.2205068638,0.0053942054,0.6991243557,-2.5508654296,8.057707543,0.6642681998,2.259851121,0.6101937291,0.7333543003,1.5009732302,1.6628269962,0.8548126897,0.9109083831,1.8399205935,0.2539810313,0.7874711004,0.6812624966,0.82197944,0.3730727034,0.4958375185,1.8084608706,0.5502323467,-0.7410609929,1.0948629579,2.3743127151,5.295255503,-0.3666441414,-3.2250597519,0.8018340484,1.0214501424,-0.0276762138,-12.7628134895,3.7360000596,-0.2237818141,1.4148806944,1.2336644478,3.6879744179,-6.4929934096,0.3332564214,2.2221426158,0.8803908295,0.5701126587,-1.7713995889,-7.2207613939,0.4165088344,0.5929976423,-0.0302603294,1.3953409962,0.871258407,0.611150738,1.3678352655,3.1231633393,0.8209186613,0.4568628866,1.3793352123,-0.3502477892,0.5851002731,0.248464943,0.0529853229,2.3442109122,6.2239323227,0.3105622769,1.7607711971,1.7317427065,0.3101733383,-0.1758409146,1.0761060526,-0.7281606754,0.5575074323,-0.7467721942,-0.945295801,1.4939430951,2.2621553828,1.0337956768,1.7951490565,1.0840951999,1.8795166225,-1.4589057956,0.1487053729,-0.4662598023,-0.1628268882,0.3571733185,1.2425648963,-0.9218305184,0.9515532997,0.6997543471,1.6461532016,1.3923882471,-0.1337834901,-0.1236807552,0.0291316214,0.5115462533,0.1984861651,0.3555093095,1.1123776902,1.9493316951,-0.2046962292,-0.0600258176,9.1383373307,0.8485611379,2.2417979503,1.3873648635,1.4394009497,-0.1870845016,1.4914747106,-0.97040113,0.9669990472,0.2551642423,1.9179618378,0.2017201745,1.0960361519,-0.2917214326,0.1644797472,-0.2267895667,0.9867690807,-0.132014217,-0.2812420591,-0.192103122,0.5650150277,1.090367187,0.4974153515,0.395923515,1.9247352754,-0.1265573334,0.9497838057,-0.1554297494,0.0650742243,1.5892325154,1.354192298,1.0668941654,-0.0800493311,1.5169480358,1.7837130043,-0.6034929025,0.7646559529,0.3789435195,-0.0586217718,4.6412071949,-7.9270007659,0.4861111644,-0.5865438152,0.524582248,0.247521644,0.2582356039,16.6745590559,1.3348105745,0.3839564249,1.262392556,1.1062992216,0.5935500668,0.8350295422,1.055765797,-0.4084030781,0.4665078229,0.621451649,-0.6563514518,0.2397937093,1.0990658041,-3.9669804931,1.9856773915,0.5556332719,0.9054266826,-8.3222536126,1.201321394,-0.3419472142,1.0354966332,-0.7633314767,0.1637010786,0.661721434,0.4659040153,3.5910095783,2.7084384979,0.2907232932,0.6344137742,0.5295152722,0.3070557427,1.2919678153,0.5377724912,1.3659288657,1.0343215602,0.6663763999,0.4856280328,0.0649539816,0.1064498742,-0.1474727027,0.9393557245,-0.3666814264,-0.8466037648,1.9044968327,2.4302059517,1.5236964313,2.0125072471,1.4722970968,1.6782123361,1.0202153176,1.2442082672,-0.2889113925,-0.1230340699,0.3434251606,0.282978601,1.1502672005,1.1369808935,-2.7392856908,1.4212877776,-0.3823444871,0.2432755836,-15.0120631216,0.1773499275,-0.3555674768,-0.8344216985,-0.720811409,1.0697451181,1.1865078966,0.5419028195,-0.0442125605,-0.6442313428,0.670130095,1.8158580229,0.126847897,0.0693963684,0.9727794294,-0.2437205707,3.1543317933,0.573371704,-0.2451551937,0.566869714,-11.3692644934,0.3165294617,0.2706046056,-0.117944863,-0.8298300096,0.1029916352,0.765955365,-0.3248257447,1.5332233602,-0.2884598229,0.289152539,0.1424496773,1.2240342573,0.49949293,2.6710593966,-0.3319361957,1.2838237366,0.9337940397,-0.1387658391,3.9033577034,0.8667834487,1.4572695353,1.0139268818,0.5832895654,0.3114987226,0.4942333872,1.2201461952,0.5034931498,-0.0423283114,-0.0646853366,0.153625906,-2.2247170777,0.7834573715,0.973738283,-9.3759338765,0.5793796718,0.9145966396,1.8527106618,1.0441280045,-0.7274575542,0.2301033632,1.0549563651,0.4357879855,-1.3980205832,-0.1018527343,0.3118089345,0.5356944703,1.3203638065,-0.4795392626,6.0825898852,2.0183259116,0.4354556479,3.608391881,2.6732889665,-0.0048198206,-0.5729920052,0.6223317765,0.8511218716,1.5268849177,0.3534319031,1.0557985821,-0.1820083132,-0.3500126699,1.6185727264,1.2805271262,0.9946873752,1.7941276406,4.1788170829,0.7135233158,0.171017876,-0.0347829637,0.3348705088,-0.6461630926,1.5413668084,-0.2228690275,-0.3300064573,-0.0120641139,0.8730718851,-0.7096504517,0.7084066203,4.3341574932,1.4443325872,4.6199298712,0.1893062014,-7.908114793,0.1072457804,0.7820701855,0.6398459092,0.5508615637,1.3773904321,3.6044784832,1.073140903,-63.4810355694,-0.2192560601,-4.7875370649,1.2239718031,-3.982425889,2.510137759,0.8577023431,-3.2754701505,0.7842297013,-0.1595118713,-11.0114086782,-3.8707228553,2.4268767034,0.5469861922,-9.0559668705,0.570957357,-0.3681438181,0.0912600129,0.7088854865,-7.0288831411,-0.2487862738,2.2346260945,1.1294129931,1.3409137693,3.0842958373,0.0795508221,0.4462792495,-0.6457928348,0.3772532344,-0.0411615319,0.7267522956,2.1850879612,1.1857819565,-0.2107132853,-0.2173572351,-0.4486096204,1.1215564188,-1.571702623,0.7498634508,0.0185913708,-1.8792503269,1.3311905659,-0.1596568733,-0.7836762793,0.7049081112,1.6589997907,0.4153495561,3.0194186845,-0.3232433945,0.6161807892,-9.7065949541,-1.1259424096,-10.4859240108,0.3477923636,0.1784482621,-0.4135354404,-7.1523705577,3.7665887689,0.1641497313,1.2254740687,1.1925633992,0.6233370497,-19.7819705136,-0.5971815109,-0.1296976585,0.2146178957,1.0675516211,-5.3769350346,0.4652442615,-25.4878867638,-0.3288252678,1.1227462474,0.830368302,0.4179705113,1.4253893323,0.2688754609,-21.0939800329,1.2214775279,0.184780034,1.4429428965,0.3028775444,1.1055270132,1.6594638843,1.495849632,-0.2172399316,-0.7100284937,1.0417310131,0.7022749656,-1.778489925,-4.1437642352,-0.5126112375,-0.2346254118,1.00005384,1.2719404462,0.6458563878,1.2180521751,0.8323162144,0.3963711149,-0.6625695367,1.0693761381,1.1925959922,0.6929892674,-4.1482846455,-1.5554727221,1.1076496628,0.5285563265,-0.2533235986,-0.2310729348,-0.3176475154,1.4866396516,2.5213638301,-1.6435976835,-0.1260533955,0.2449581058,1.7519679446,-0.5396532852,0.0139594084,3.5883980682,1.0969643689,-2.9000771391,-1.1911512794,0.7485832872,0.9242905238,0.1526339541,-1.4024374627,0.8291814,0.2384060507,-0.1221157017,-1.821884832,1.4871176124,1.7003432726,-1.0435547583,0.7187974237,0.1271781903,0.9947251912,0.2586917921,0.1678833468,-0.399719793,1.0855752165,-1.510249249,0.2538618637,-1.0920430825,0.9287888816,3.5671508422,0.8282271767,-0.1601208207,1.0582878435,1.3307840462,-2.9843951962,1.3993918536,0.4516461738,3.4915216245,-1.1313794667,-4.0666650893,-0.2153804334,-0.0359077002,0.6228391602,0.1507037489,0.0210829217,-0.3971503237,-1.359670862,0.4266959678,0.9565279331,0.7281257837,0.8477107691,0.7446183715,0.5206986625,-0.0416898464,1.2903530961,-0.0487824968,0.562429501,2.0530317752,-2.0550545536,-12.2568061702,1.4165687306,1.0915533266,2.0619762762,-11.8309843127,0.0924495439,-66.2441473177,0.2153363653,-0.6976395964,-1.0379368645,-1.3601150529,0.7694533104,-0.4764460676,0.3313193932,-17.273106219,-0.1395007805,-4.3550362485,4.1742792022,1.3303487099,0.2219888981,-0.1175593934,0.3807670473,3.3784845339,1.256257986,1.3687619198,-0.7137969484,-5.1223202295,0.0398428825,-4.4493474283,0.1961859209,-2.7739141013,-0.1457044668,-0.372453584,-1.1882468837,0.9989734642,-5.942409783,-0.0493667438,-33.1718370597,0.0277471771,-4.0214917727,3.6447406086,-1.0279066264,0.4891810006,0.1545479832,-0.4427160951,3.0091274645,0.2621797137,-0.1596440955,-0.5410165468,1.4650520789,-0.4214342426,-0.5859154602,0.4302488011,-0.3985241634,-0.097386708,0.1783171497,1.1582847324,-4.9160325942,-0.7285046515,0.2286620521,-0.7739959235,0.7792546629,-0.2405186909,1.4078720336,0.9483871601,-6.4305980589,-0.0245664282,0.6466506249,1.0175379742,0.1549016337,0.5064606329,0.5738432006,0.1018195366,1.1687676842,-10.8496040142,-1.4737389147,-1.1342377057,1.5144319529,1.1434076252,1.2830287885,-0.0662543769,-0.2277951915,-0.1957240256,0.4525426999,4.6207295371,0.0443118439,2.0663063841,1.0650764021,0.3520517414,1.7195337356,-0.1245145605,0.4611938941,0.3367978766,0.6186562338,-17.4165519446,0.71871177,-75.0723511911,0.855400709,0.4250217979,-114.7701022253,0.4208444235,0.2783184671,0.0740243903,-2.5085737835,-1.5663746979,-1.0204839835,1.4559689897,1.1824821538,6.8367015978,1.7066879645,-1.1993615962,0.0100785844,0.3916103193,0.0541648793,-35.9608417751,3.7654123322,2.6178740368,-1.4179197783,-63.5317696919,0.8519024002,-6.8957919424,-1.4407468911,-12.6713327964,2.3764038852,-199.1867955916,-22.2143027118,-0.1675907918,-14.3157935297,-0.7772426834,-3.6877520294,0.5147911053,0.3201814175,-3.9554362666,-0.6553377892,-45.7611589276,-4.0933592002,0.568998429,-0.5597712879,2.5527496378,0.2095402643,-11.8104583064,-0.527102901,-0.743065086,-0.4620538678,-5.9922260541,-1.7364859811,0.0024833863,-12.6934094747,0.1139020822,1.8545123112,2.1267303708,0.4787185046,0.5644152412,0.2626762986,2.5713971584,-2.0809370437,0.3088239352,0.8041591053,-18.7140513195,-1.3865109386,0.3913445557,-0.8384022023,1.5918883369,0.3303822859,-0.1405933388,0.2505635984,0.8278714859,1.5179181057,-15.8007566169,0.4932631962,-0.160137436,0.6481430755,0.7148367581,0.498653624,-6.8539075702,0.9019881356,-0.1349112987,0.4995847666,-4.5745729283,-4.3435096713,-6.7404316909,-11.4257935886,0.4173951471,-0.1138882304,-0.029195873,-0.9497294555,-0.7429230413,-54.5552439069,-1.7959640024,-25.3583797958,-0.0952623565,-13.7885899485,-0.6011087879,1.7702777165,-13.029409381,0.9770090064,-1.6609076428,-0.370870026,0.6163538313,1.3673965266,0.8417440993,1.4674708763,-263.1331764681,-3.774771659,0.5280595796,-0.1518236482,4.1164094793,-1.434264216,0.9927898192,1.494958857,-2.3264895281,-8.1055481171,0.3358481082,2.5460983955,-14.6018915474,-0.4863073736,-4.5000684877,0.1712893753,0.767328769,-0.7278544663,-61.2507907071,15.2032088364,1.1624707892,-1.6985751519,-0.1812817897,0.8613058454,-4.1593914687,1.1743382632,0.0490412256,-17.5696560142,1.0221823717,-0.1579988439,1.0316544576,-1.0294677942,1.8353532729,0.8048221319,-0.4636634201,-1.603955763,-95.6784805055,1.8497069978,0.0529576493,-0.0300048974,-5.3723355518,1.0433216935,2.6307958908,-10.5737496769,-2.8818199114,-10.8810638734,0.9791651725,-3.3005938011,3.0166368733,-0.2158112815,-21.0009284309,-0.9968083876,-0.2171372482,-199.450051468,0.8975245453,-0.7122763837,0.1128603428,-35.9823183815,2.2130224638,1.3729579261,0.8586662119,-0.6336701692,1.5516393767,0.7678214424,-0.524791102,0.8289601601,-0.7484317692,1.9079261333,-5.2074321765,-20.2397060907,-3.4096793607,-0.1059373117,1.1192385465,-14.4671522088,0.9577945858,0.6562947055,-4.2039128137,0.5773777237,0.9569753653,0.6118578951,-18.718339878,1.2400452427,-5.6384815667,1.5445380624,-0.1755824977,-0.6561733795,1.3202311307,0.7738045852,-1.1215343916,-85.8660592217,-0.5692569298,0.5452847521,1.5175615298,-12.4909068324,0.8575035826,-225.3401233684,2.7576987525,0.5946091257,-6.4334339563,-9.6285944293,-7.3634270189,0.7895527639,-0.9443196653,0.1343136686,-0.9892589856,-3.3609061142,1.0135511159,-5.1283928771,2.261255749,0.7075953197,2.3912005357,0.8191618246,0.2693295359,0.7360833976,0.1098952381,-16.2331784546,-4.8033619367,-0.4532691067,-0.7286973254,-4.8658271641,-0.9089022818,-1.075414371,-11.4526964307,0.9395066916,-50.7763115329,0.3779178625,-35.1297916657,0.4919234146,-50.7820215799,0.5744236474,-8.3724923807,0.2547717838,-2.1352954121,-12.9836486568,1.3570312756,-0.5520862535,-0.1855877246,-0.6490973219,0.1790313139,0.9168510394,-0.0329380247,-3.2256209774,-1.3565730466,-2.0972065201,0.4043888112,1.4878408334,-2.6707310121,-209.465326043,-0.4052356496,-7.6081574749,-0.7309322099,1.7685238536,2.3288784835,0.33926211,-1.7550823912,-54.9174104818,2.76132001,0.8086448021,-6.6930409231,0.5217893289,0.2338437924,-0.5551736883,1.0348884555,-8.8137715872,-0.7401498919,-17.3517918485,-0.2469920387,0.4187760668,0.9236868705,0.5972578225,-0.7078639765,-2.9605272653,1.1660837287,-1.9313427943,0.4710562945,1.1037720703,1.0558885046,1.3853253675,1.8145667465,2.3543857851,-0.9339674091,-0.1704183839,0.8797834883,-3.0126116847,0.5419227515,-10.9740921909,2.1814498038,0.3344942015,1.2203883355,0.8914029533,1.2468175807,-0.2917912455,-7.9416368704,1.2318996156,0.3607571371,2.2214964404,1.4900195612,0.6713790666,0.5818478907,-12.7649070399,1.928935922,1.1257212296,-0.4322061231,-0.5670404386,-0.121688588,0.3320790022,0.3473812839,-211.4602227999,-0.0438405174,-4.5325953196,1.2303157914,0.0936861068,1.078803094,-4.3906599857,0.210112632,0.1496918236,1.020467532,-5.0879185208,-0.6208804326,3.5796134273,0.9762568377,-35.9747183165,-0.3539363185,-2.3186671885,-5.2264973609,1.4339366652,-0.355362879,1.7568457903,1.7397570872,-0.5864848944,-0.5486376072,3.3598795222,0.4882410126,0.0306303515,-0.3009653437,1.8488275276,-0.6290459771,0.0119560549,1.7185523919,0.951696243,1.5229194029,0.7094607976,0.896864864,2.0494085501,-0.5826686785,1.5373538808,1.6352417072,-6.8109589043,1.0854716459,0.4172183623,-1.0525095167,1.9862751377,1.1285607604,-3.8779403096,-0.0039975195,-0.1385469946,0.5807293106,-33.1026664045,-0.5513520628,-1.0280745308,-0.3394699997,0.9999432969,0.3776937898,-6.210537203,0.0076190493,-24.7603861414,0.21579034,1.3657082363,-8.4407838177,-41.5593994814,-5.2172371822,1.4487048505,0.0489917516,0.7204390565,-10.6874422481,0.556566207,-4.8426610904,-0.1036261464,0.126880141,0.7335852729,-4.4355733241,-0.3767933713,2.4158051077,-3.491982175,0.8495312274,-1.1714287508,0.1385754091,1.4687730818,3.336237786,1.2816377009,0.9840916653,-6.2982038177,-7.2266697357,-0.7149834878,-2.9479751282,-1.5988263942,-0.3425002126,-1.0507316588,1.7303953226,0.0363143093,0.6549130389,0.0844048428,0.5371488881,-4.3479531558,0.1749787075,-4.021120809,0.5648682144,0.8095107092,0.8262832409,-2.3811828306,-0.1291614607,0.7015088644,-21.4068825838,1.4765199075,3.8731491879,-0.4368394232,2.1323268658,0.5290459388,-4.4271337717,-0.9396426273,1.1476341878,1.0885474997,-12.1801568451,0.6457202586,1.7999814041,-1.9442969662,-4.1348167797,-2.2142570591,3.1205383823,0.4847734522,-0.6531639913,-22.3172921861,1.5025097509,0.49871401,-2.4099875612,1.2808555403,-0.8228558469,1.2789915672,-0.4900712164,1.6848135796,-0.1307678695,-0.7476363435,-1.1035493094,-0.5160953164,-4.9419147748,1.3872755278,-2.4186266438,0.3879027897,-1.0412212475,0.3389469205,1.4077571921,0.5018645713,-0.1073060467,0.4127260254,0.7750422432,0.2831520945,2.8392507055,-0.2085102412,1.3938045599,0.9203396424,-35.1872079869,0.3980944641,-1.0184733517,0.6000144694,1.4717632573,0.9905329954,-2.1255517432,0.1682450929,1.1106946081,3.2173771805,1.8785441252,-0.285614051,1.2911560983,-1.0300934618,1.2193605039,0.0091140108,1.0466896924,-0.1222655772,0.8858654371,-0.7453910343,-5.0728129899,1.4585579586,0.5027336799,2.0420307502,-0.0854795096,0.8003385088,-67.2340560544,1.2515813972,-0.375805725,-9.476057856,-4.361380641,-0.9099671636,1.6575280875,-0.3060719996,-0.5150868567,-0.0290827967,-13.4661318407,1.2659589068,0.1217709095,0.2307898568,2.5870628644,0.8097328968,4.5249122816,-0.0410127729,1.727488857,0.6051714911,-32.1246213307,-0.8958526122,-20.1295050115,-9.1815237415,-1.1781786814,0.824414107,0.6648773825,-5.4394571213,7.1631885703,-96.2277707167,0.0965034949,-19.4991881072,0.8386924286,-71.2238575929,0.7638142513,-11.1747596863,1.5342631344,-0.3886865358,0.0589416569,1.5381197122,-0.0070680088,-0.4796700862,-0.2258474043,4.2138541682,1.0993288046,0.4263526986,-2.0054493984,0.7301188629,-0.9701409793,-0.0792855803,1.0519011064,-10.4384351075,-12.0458267008,1.181982892,-0.2969412732,1.6331758842,0.4469254918,1.7125409098,-0.1976841942,-1.7110813722,-17.6185332766,0.9499664759,1.1957308759,-4.1688349761,-0.5836832771,1.258397273,-0.1128438933,1.2806947564,-1.6259274677,-9.4905082865,0.4352766281,1.3750264425,0.6223660368,1.4828148571,0.9477153356,0.911288816,0.4673521129,1.477373058,0.4351761351,0.4004535832,1.8191458719,1.8542823197,0.9157219022,0.7805762458,1.4806079182,-0.6356475124,1.6426793921,0.0049827227,-19.698202045,0.632830094,-211.4128170842,1.1567334494,-0.2904627423,-0.056893566,1.5654064505,0.8693405078,0.8369210481,-15.739009827,-0.4960766555,0.1707140121,1.550205688,1.5960249036,1.2102304628,0.2437779125,1.2272310338,1.479959171,-0.7545444596,0.6074354877,-1.4908131302,0.4103582111,0.3519210294,1.0105046951,-70.2289577336,0.9664876127,1.1351178163,0.354560551,1.2194476028,1.1978322354,-7.3780201791,0.1302082977,1.5161543625,-0.0546138425,0.260980116,0.5569675878,0.7962926428,2.7659243722,-2.4431932622,-0.7905003263,-2.0881508906,0.2960127406,-0.3430285162,0.0576408565,1.777858766,0.8530230923,0.6510630248,0.2151876571,1.2770514067,0.009095038,1.7809316695,-0.2940126491,1.0988619408,-9.9289947251,-1.8137892092,0.954598572,1.6015489428,0.3790332182,0.2736940813,0.6058701426,0.5887758957,-0.6548872878,2.2488943762,1.6685436589,-2.0937387663,1.9275089927,-0.2063825166,-0.655466658,0.6461687841,0.708253775,-0.6684473827,1.6828432257,0.0740574356,0.3265661113,-197.936786,-0.3008171705,-1.0223809146,1.9067700481,1.076857918,0.9530075378,-20.8482968622,-0.227413309,-8.6757297755,0.9556108412,3.4057038968,-1.7530702748,-36.0299140631,-0.3266473461,0.1299860002,1.5290277284,1.6961873168,-0.525460781,1.3562347956,-10.318488857,-0.1659721126,-1.4556768878,0.6361354347,-78.7217176831,-0.3610616954,1.9255469599,-1.0162977986,1.6629133856,1.1048381856,0.4667497204,1.7159761865,1.3584185149,1.9799140959,2.3050369898,-161.7414957363,-3.0984398649,0.6403019125,0.4049660723,-0.3774524252,0.3545914108,1.5045846245,0.8196720945,-0.5663421892,1.7113615177,1.3231090708,2.2732099154,-0.259367338,-0.1215001769,1.0673517141,0.1551076344,0.038375873,1.2949351623,-148.8460819127,-1.7956069202,1.6190921465,-0.7148902056,0.8657244203,2.1002916093,0.210820879,1.3764772599,1.8284355103,-37.9281143787,-0.105605331,-0.0777255288,0.9824465354,-1.2700351463,0.3551354186,0.9901987098,-0.562930059,0.2766225552,-10.1276945988,1.3910036287,1.5352140529,0.1658171247,-3.8852955378,0.8551016189,2.0672017925,0.8518897185,-0.2930371103,-0.0656959432,1.6809661774,0.5674926278,2.4383557582,0.9980835554,-1.0364714076,0.9305634258,-0.1184149523,1.4248059016,0.4262245454,-0.303509935,0.829586713,-0.3015976089,2.0040092075,0.9507229285,1.421360884,1.4950495788,1.9717248604,0.4954384362,0.1868078989,1.7008088868,-0.0217711354,1.2219225196,0.0529960584,0.3491785543,-0.0366859523,-0.1743905503,-0.2749829242,0.033167352,1.2129443492,0.0539884453,-1.740460843,-0.1003409362,0.6768630734,0.9134841557,-1.5519736783,0.1577391061,0.6256511404,0.799147581,0.557295736,1.3340877695,0.9207784268,-0.1140685876,0.6814413268,-1.4257147005,-0.0370223718,1.3935310297,1.2921991082,0.450334677,1.4954004212,-5.9515718886,1.6759420238,0.6143272883,-10.6475594019,-4.4955377374,0.1253228387,1.7819010845,0.9682000019,0.8443297812,0.2401519912,-5.9435340167,0.8387668855,-0.414140071,0.9732584635,1.4693409987,1.9601544056,2.7060053503,0.5093203323,2.2758792474,-0.5116025225,-12.3244373937,-0.1871604273,-0.151647794,0.2561389768,-3.5618733719,-0.3548373052,0.9464605719,-7.4213644517,2.0964337752,-13.9507575161,0.2055230704,-28.4821608687,0.0469446843,-18.9491157435,1.1220354414,-11.843205273,1.4336494654,-0.373913845,1.0607878984,1.058726139,0.5869272812,-0.4862707055,0.0928678312,1.1505378224,0.737307107,0.5393862711,-0.6990482421,-0.0876972973,-0.060179054,0.9627354997,-0.6144681701,-58.0066851281,-164.9246869102,8.4332425297,-10.3942167881,0.4843242525,1.0405023364,1.9376761731,-0.2709277864,-0.7602491781,0.1752733888,4.5295641818,0.4309418176,-4.1814517133,-0.4872043972,6.8142858706,0.9631372483,-0.3638029647,0.4236873914,-0.6073589311,-0.5070243453,0.7331669073,0.3129601597,1.3344337815,0.0452356871,-3.9786624265,-0.4085171473,1.4600976596,-0.1002158839,0.7492465248,10.2869610556,0.6845697612,0.1102916067,0.6730181454,0.9783025049,1.2202886972,1.0509231786,0.4347157737,-10.3721774417,0.6627615586,-60.9435105381,2.0507140723,0.4463306447,-13.7006631567,-0.0209995262,-0.3698602654,-0.2777216813,0.6063434272,0.508152981,0.0811108241,1.3728479399,1.3564077547,2.5957688957,13.3605662567,-1.1021233125,2.5891881565,1.3230882193,-2.9484323035,-3.329950281,-0.2306065505,0.3562763515,2.2775987413,-15.3362899041,0.7546499462,-0.2315086211,0.7916152906,-0.0864457468,1.0487926126,-1.7912345422,0.6947610082,0.3235096936,0.0189096517,-2.1973623709,1.1228407729,0.4496026482,0.559553159,-24.6350209605,0.8703163431,-4.1653913189,0.6070428562,-0.5683087274,-0.7110341973,0.7673342771,4.2058777198,1.0339311697,0.9003459745,-0.0343047211,8.873594065,0.4437299916,0.5282395433,0.3210942479,0.3291807954,0.2494434242,-0.0862033179,1.9800330129,1.4949991804,3.4640409227,2.5858361506,0.4490725085,-1.5900755297,-0.3543402046,-0.0534153844,-1.2142456754,-0.7124795024,0.0742110101,0.3244902928,5.016953237,1.2599712719,0.1266200173,0.270704647,0.7368049548,0.9451265726,-18.6123411304,-0.7811538412,-1.2119635301,2.8070502157,0.2939048588,1.31789639,-10.6016207127,0.3103125481,0.9189511547,1.4467996585,0.4215529481,2.9522636163,-1.2768015631,0.1762719562,0.5754280484,-2.6623227371,15.0517954581,-0.2296464973,-0.0942253112,-2.2557777564,-0.0734620926,0.3973283689,2.4418691321,-0.8064217708,-0.663701597,2.0384360203,0.2696230774,2.2605376861,0.1601124641,0.7665242391,2.9242841269,0.5854446382,-0.4911334222,1.3207317038,0.1610312431,0.2666644048,0.0910162621,0.2822721328,0.5779758267,-1.2065951398,0.6332522069,0.7023466254,-0.8486151353,-0.5591789965,0.0291115173,2.5096779702,2.770704538,1.2067057507,-0.6027528257,0.2881908814,-0.5757644479,-0.5272296075,-10.8419979048,-0.376687865,3.0672552391,-0.1289426339,0.7804481717,2.8773525578,0.1982084385,1.8781669683,2.1372143938,-1.4921379642,1.0240620988,0.6548367026,2.513797653,0.9788547382,0.9027691965,-0.2976962863,-0.2925907067,7.7041896943,-7.8436181965,4.5182459359,0.33755293,-1.1364907962,-2.2045384591,1.4718232128,0.126351087,0.6728144029,0.9750963578,1.1854535396,1.2047439094,-0.7133960353,0.6163879987,-0.6128703223,0.4570291917,-0.2738418385,0.8986879405,-0.8028480283,1.1739803735,0.5585536006,0.5532909449,0.5214903932,2.5058243805,0.5718620128,0.0120993515,1.6749834318,0.2648587362,0.5269397495,-0.3615020264,-0.6398191726,1.3718801798,0.6629743497,-0.5495547478,-0.6455661757,-0.4861761476,0.9591815954,0.5048306591,0.296895413,0.6989359017,1.5613130824,-0.7712977646,1.9086041207,0.8610239104,-0.2223126198,1.5785970636,-0.4598553938,-0.292498833,0.3510147943,0.7211471789,-0.3811874917,0.6098306068,2.3825622406,-1.1253176585,-0.4180259251,-0.5656558452,-0.9634535647,2.4808096866,0.629402877,2.5787995879,-63.8416100784,0.5552216947,1.4013618415,-8.8230994151,-0.1604850567,-0.5501425924,9.2058735248,0.5103009446,0.8345614679,0.5131628349,0.807475377,2.3298790088,-0.4556532283,1.4011252055,0.5521221052,1.2941040514,-0.4165016766,0.4427306891,0.3251823201,-0.1239306623,-18.4814908907,1.2476180902,-0.6797462225,0.5230272983,-0.4699712328,-0.3285325952,1.7718492352,0.1652206529,-0.6400752675,-2.2844492601,0.5669277712,-1.3824516787,-0.4229900032,1.8012642186,-0.1347204513,-5.8902170011,6.7373027401,-0.3225290297,0.7913163177,1.7829258457,-0.4596623199,-0.1117804129,-1.5082758233,-0.1435862787,2.0740196045,-0.9018744179,1.0482859123,-0.138656011,-0.1857964261,0.3741332335,2.2932496072,3.6492396929,-0.368540277,1.4844518068,0.1928237778,0.9838781329,1.4440393863,-0.3269933346,1.0304177499,-0.2407652352,0.6637938504,1.4613416752,-0.2439656763,0.6197275277,-0.5611508255,0.9926585421,2.8502733808,5.6578571292,0.9221876663,-0.3506218579,1.0983680414,1.1578994053,-0.1697958639,2.1649262309,0.383666551,1.0820846141,0.8095368737,-0.0885408315,0.0436464911,0.2705544497,0.7225834104,1.0928068959,0.9572459441,0.0484003406,4.080107346,1.0467841138,-0.6796778968,0.9911851,0.7590939631,0.7504945155,-50.0238495399,1.1418289334,0.5273903866,0.3281024765,0.6571043066,0.4052188722,0.3224192586,0.9160670707,-0.3809640468,0.6502747461,1.7232040269,1.4439658491,4.049023705,10.7406691856,-0.3593657658,0.7975441625,-0.5040837485,-0.1842570183,-1.1606896428,1.9722376015,2.2003185182,0.5715670602,-11.8158680042,0.8557018443,-0.3218467942,0.4791688008,-1.6351046266,2.0177110576,-0.8423790365,-0.6939497067,1.9353777118,-0.9227575388,-0.7694780703,-0.0975828471,0.8596967761
